<?xml version="1.0"?>
<opencv_storage>
<cascade>
  <stageType>BOOST</stageType>
  <featureType>HAAR</featureType>
  <height>24</height>
  <width>24</width>
  <stageParams>
    <boostType>GAB</boostType>
    <minHitRate>9.9500000476837158e-01</minHitRate>
    <maxFalseAlarm>5.0000000000000000e-01</maxFalseAlarm>
    <weightTrimRate>9.4999999999999996e-01</weightTrimRate>
    <maxDepth>1</maxDepth>
    <maxWeakCount>100</maxWeakCount></stageParams>
  <featureParams>
    <maxCatCount>0</maxCatCount>
    <featSize>1</featSize>
    <mode>BASIC</mode></featureParams>
  <stageNum>30</stageNum>
  <stages>
    <!-- stage 0 -->
    <_>
      <maxWeakCount>6</maxWeakCount>
      <stageThreshold>-1.0159958600997925e+00</stageThreshold>
      <weakClassifiers>
        <_>
          <internalNodes>
            0 -1 125 -1.3187493383884430e-01</internalNodes>
          <leafValues>
            8.3357661962509155e-01 -7.2544378042221069e-01</leafValues></_>
        <_>
          <internalNodes>
            0 -1 183 -6.3598319888114929e-02</internalNodes>
          <leafValues>
            7.1977555751800537e-01 -6.9506734609603882e-01</leafValues></_>
        <_>
          <internalNodes>
            0 -1 363 -5.6061740964651108e-02</internalNodes>
          <leafValues>
            6.9505292177200317e-01 -3.4887519478797913e-01</leafValues></_>
        <_>
          <internalNodes>
            0 -1 103 -5.3468380123376846e-02</internalNodes>
          <leafValues>
            6.8233001232147217e-01 -3.6933973431587219e-01</leafValues></_>
        <_>
          <internalNodes>
            0 -1 117 6.6288314759731293e-02</internalNodes>
          <leafValues>
            -2.6612046360969543e-01 8.1917947530746460e-01</leafValues></_>
        <_>
          <internalNodes>
            0 -1 274 6.7514635156840086e-04</internalNodes>
          <leafValues>
            3.3718094229698181e-01 -7.3428815603256226e-01</leafValues></_></weakClassifiers></_>
    <!-- stage 1 -->
    <_>
      <maxWeakCount>8</maxWeakCount>
      <stageThreshold>-1.3205947875976562e+00</stageThreshold>
      <weakClassifiers>
        <_>
          <internalNodes>
            0 -1 310 6.0364797711372375e-02</internalNodes>
          <leafValues>
            -5.6552541255950928e-01 7.6911836862564087e-01</leafValues></_>
        <_>
          <internalNodes>
            0 -1 181 -1.3222402334213257e-01</internalNodes>
          <leafValues>
            6.2596696615219116e-01 -5.3383982181549072e-01</leafValues></_>
        <_>
          <internalNodes>
            0 -1 97 -3.8970537483692169e-02</internalNodes>
          <leafValues>
            3.7433207035064697e-01 -7.4502176046371460e-01</leafValues></_>
        <_>
          <internalNodes>
            0 -1 27 1.6185004264116287e-02</internalNodes>
          <leafValues>
            -3.3579093217849731e-01 5.1578193902969360e-01</leafValues></_>
        <_>
          <internalNodes>
            0 -1 296 1.5352573245763779e-04</internalNodes>
          <leafValues>
            2.3394195735454559e-01 -7.1538347005844116e-01</leafValues></_>
        <_>
          <internalNodes>
            0 -1 143 -2.6262141764163971e-02</internalNodes>
          <leafValues>
            1.9943201541900635e-01 -6.9625556468963623e-01</leafValues></_>
        <_>
          <internalNodes>
            0 -1 233 3.0593068804591894e-03</internalNodes>
          <leafValues>
            2.0411954820156097e-01 -6.2948620319366455e-01</leafValues></_>
        <_>
          <internalNodes>
            0 -1 362 -1.2674080207943916e-03</internalNodes>
          <leafValues>
            -5.7827723026275635e-01 2.2208958864212036e-01</leafValues></_></weakClassifiers></_>
    <!-- stage 2 -->
    <_>
      <maxWeakCount>6</maxWeakCount>
      <stageThreshold>-9.8094767332077026e-01</stageThreshold>
      <weakClassifiers>
        <_>
          <internalNodes>
            0 -1 89 -1.3343206048011780e-01</internalNodes>
          <leafValues>
            7.7097076177597046e-01 -6.8894600868225098e-01</leafValues></_>
        <_>
          <internalNodes>
            0 -1 275 -3.8066849112510681e-02</internalNodes>
          <leafValues>
            7.9184687137603760e-01 -3.9301142096519470e-01</leafValues></_>
        <_>
          <internalNodes>
            0 -1 32 1.7930638045072556e-02</internalNodes>
          <leafValues>
            -3.0210003256797791e-01 7.5169515609741211e-01</leafValues></_>
        <_>
          <internalNodes>
            0 -1 124 -4.6266861259937286e-02</internalNodes>
          <leafValues>
            7.0611327886581421e-01 -2.7847141027450562e-01</leafValues></_>
        <_>
          <internalNodes>
            0 -1 300 -1.0594212653813884e-05</internalNodes>
          <leafValues>
            3.5751110315322876e-01 -5.2348810434341431e-01</leafValues></_>
        <_>
          <internalNodes>
            0 -1 209 -1.3645139336585999e-01</internalNodes>
          <leafValues>
            3.2407012581825256e-01 -5.5129623413085938e-01</leafValues></_></weakClassifiers></_>
    <!-- stage 3 -->
    <_>
      <maxWeakCount>10</maxWeakCount>
      <stageThreshold>-1.1483057737350464e+00</stageThreshold>
      <weakClassifiers>
        <_>
          <internalNodes>
            0 -1 248 5.9246405959129333e-02</internalNodes>
          <leafValues>
            -7.0568561553955078e-01 6.6116422414779663e-01</leafValues></_>
        <_>
          <internalNodes>
            0 -1 469 -6.9325314834713936e-03</internalNodes>
          <leafValues>
            6.7840045690536499e-01 -3.3175340294837952e-01</leafValues></_>
        <_>
          <internalNodes>
            0 -1 18 2.1059454884380102e-03</internalNodes>
          <leafValues>
            -3.9465472102165222e-01 4.7918170690536499e-01</leafValues></_>
        <_>
          <internalNodes>
            0 -1 15 -4.6430323272943497e-02</internalNodes>
          <leafValues>
            5.4825484752655029e-01 -3.3562788367271423e-01</leafValues></_>
        <_>
          <internalNodes>
            0 -1 387 -4.3662581592798233e-02</internalNodes>
          <leafValues>
            5.0200724601745605e-01 -3.4369847178459167e-01</leafValues></_>
        <_>
          <internalNodes>
            0 -1 134 -1.2441412545740604e-02</internalNodes>
          <leafValues>
            4.5575773715972900e-01 -3.6278119683265686e-01</leafValues></_>
        <_>
          <internalNodes>
            0 -1 321 -1.1385883226466831e-05</internalNodes>
          <leafValues>
            3.2345700263977051e-01 -5.4887866973876953e-01</leafValues></_>
        <_>
          <internalNodes>
            0 -1 232 -1.3386673344939481e-05</internalNodes>
          <leafValues>
            2.4947047233581543e-01 -6.6215276718139648e-01</leafValues></_>
        <_>
          <internalNodes>
            0 -1 179 -5.3206663578748703e-03</internalNodes>
          <leafValues>
            5.3038072586059570e-01 -2.9872608184814453e-01</leafValues></_>
        <_>
          <internalNodes>
            0 -1 388 2.3638837039470673e-02</internalNodes>
          <leafValues>
            -2.2207136452198029e-01 6.3280248641967773e-01</leafValues></_></weakClassifiers></_>
    <!-- stage 4 -->
    <_>
      <maxWeakCount>10</maxWeakCount>
      <stageThreshold>-7.8487551212310791e-01</stageThreshold>
      <weakClassifiers>
        <_>
          <internalNodes>
            0 -1 304 5.4207611829042435e-02</internalNodes>
          <leafValues>
            -2.2587065398693085e-01 7.0026385784149170e-01</leafValues></_>
        <_>
          <internalNodes>
            0 -1 92 -5.0074301660060883e-02</internalNodes>
          <leafValues>
            6.5280091762542725e-01 -3.1210979819297791e-01</leafValues></_>
        <_>
          <internalNodes>
            0 -1 171 -4.0013544261455536e-02</internalNodes>
          <leafValues>
            2.7578768134117126e-01 -7.5976443290710449e-01</leafValues></_>
        <_>
          <internalNodes>
            0 -1 490 -3.8328352384269238e-03</internalNodes>
          <leafValues>
            5.5601722002029419e-01 -3.3737975358963013e-01</leafValues></_>
        <_>
          <internalNodes>
            0 -1 262 -1.0486992323421873e-05</internalNodes>
          <leafValues>
            2.1155950427055359e-01 -6.0035717487335205e-01</leafValues></_>
        <_>
          <internalNodes>
            0 -1 29 1.7441337928175926e-02</internalNodes>
          <leafValues>
            -2.8357270359992981e-01 5.1991635560989380e-01</leafValues></_>
        <_>
          <internalNodes>
            0 -1 399 -4.2802430689334869e-02</internalNodes>
          <leafValues>
            5.2016878128051758e-01 -2.7163884043693542e-01</leafValues></_>
        <_>
          <internalNodes>
            0 -1 62 2.3844251409173012e-02</internalNodes>
          <leafValues>
            -2.1939615905284882e-01 6.0012763738632202e-01</leafValues></_>
        <_>
          <internalNodes>
            0 -1 436 -2.8585363179445267e-02</internalNodes>
          <leafValues>
            6.3476777076721191e-01 -2.0308069884777069e-01</leafValues></_>
        <_>
          <internalNodes>
            0 -1 380 -9.5749143511056900e-03</internalNodes>
          <leafValues>
            6.0888457298278809e-01 -1.9472587108612061e-01</leafValues></_></weakClassifiers></_>
    <!-- stage 5 -->
    <_>
      <maxWeakCount>13</maxWeakCount>
      <stageThreshold>-1.0430560111999512e+00</stageThreshold>
      <weakClassifiers>
        <_>
          <internalNodes>
            0 -1 89 -2.2704651951789856e-01</internalNodes>
          <leafValues>
            7.1849429607391357e-01 -2.0337393879890442e-01</leafValues></_>
        <_>
          <internalNodes>
            0 -1 319 3.5096125793643296e-04</internalNodes>
          <leafValues>
            4.3296164274215698e-01 -5.0533968210220337e-01</leafValues></_>
        <_>
          <internalNodes>
            0 -1 39 1.7364721745252609e-02</internalNodes>
          <leafValues>
            -2.9916676878929138e-01 5.7666724920272827e-01</leafValues></_>
        <_>
          <internalNodes>
            0 -1 194 -2.7071243152022362e-02</internalNodes>
          <leafValues>
            2.9713058471679688e-01 -6.3536584377288818e-01</leafValues></_>
        <_>
          <internalNodes>
            0 -1 254 -1.2122624866606202e-05</internalNodes>
          <leafValues>
            1.7828185856342316e-01 -6.0399609804153442e-01</leafValues></_>
        <_>
          <internalNodes>
            0 -1 413 4.2904704809188843e-02</internalNodes>
          <leafValues>
            -2.2330380976200104e-01 6.6539227962493896e-01</leafValues></_>
        <_>
          <internalNodes>
            0 -1 178 -2.2672922350466251e-03</internalNodes>
          <leafValues>
            2.4831664562225342e-01 -4.5333871245384216e-01</leafValues></_>
        <_>
          <internalNodes>
            0 -1 26 -2.7349385619163513e-01</internalNodes>
          <leafValues>
            -8.2916963100433350e-01 1.0291181504726410e-01</leafValues></_>
        <_>
          <internalNodes>
            0 -1 283 1.5771144535392523e-04</internalNodes>
          <leafValues>
            1.5720508992671967e-01 -6.4934527873992920e-01</leafValues></_>
        <_>
          <internalNodes>
            0 -1 357 -1.0292837032466196e-05</internalNodes>
          <leafValues>
            2.8573414683341980e-01 -3.7785470485687256e-01</leafValues></_>
        <_>
          <internalNodes>
            0 -1 465 8.9039822341874242e-04</internalNodes>
          <leafValues>
            1.5442438423633575e-01 -6.7436045408248901e-01</leafValues></_>
        <_>
          <internalNodes>
            0 -1 201 8.3529967814683914e-03</internalNodes>
          <leafValues>
            -6.0504841804504395e-01 1.6305643320083618e-01</leafValues></_>
        <_>
          <internalNodes>
            0 -1 277 -5.3276040125638247e-04</internalNodes>
          <leafValues>
            -6.4276146888732910e-01 1.3930161297321320e-01</leafValues></_></weakClassifiers></_>
    <!-- stage 6 -->
    <_>
      <maxWeakCount>14</maxWeakCount>
      <stageThreshold>-1.0115946531295776e+00</stageThreshold>
      <weakClassifiers>
        <_>
          <internalNodes>
            0 -1 87 -1.8135467171669006e-01</internalNodes>
          <leafValues>
            6.0888886451721191e-01 -4.1538462042808533e-01</leafValues></_>
        <_>
          <internalNodes>
            0 -1 298 -1.1025376807083376e-05</internalNodes>
          <leafValues>
            3.5428199172019958e-01 -5.1689910888671875e-01</leafValues></_>
        <_>
          <internalNodes>
            0 -1 14 6.8558431230485439e-03</internalNodes>
          <leafValues>
            -4.4976854324340820e-01 3.1797116994857788e-01</leafValues></_>
        <_>
          <internalNodes>
            0 -1 141 -6.2765419483184814e-02</internalNodes>
          <leafValues>
            2.4955339729785919e-01 -5.1122838258743286e-01</leafValues></_>
        <_>
          <internalNodes>
            0 -1 442 4.8768473789095879e-03</internalNodes>
          <leafValues>
            -2.8889298439025879e-01 4.5649480819702148e-01</leafValues></_>
        <_>
          <internalNodes>
            0 -1 44 1.8053142353892326e-02</internalNodes>
          <leafValues>
            -4.0709993243217468e-01 2.9626339673995972e-01</leafValues></_>
        <_>
          <internalNodes>
            0 -1 72 -5.6487759575247765e-03</internalNodes>
          <leafValues>
            5.8109277486801147e-01 -2.2411388158798218e-01</leafValues></_>
        <_>
          <internalNodes>
            0 -1 252 3.0283718369901180e-03</internalNodes>
          <leafValues>
            1.7492701113224030e-01 -7.9342371225357056e-01</leafValues></_>
        <_>
          <internalNodes>
            0 -1 131 -1.3724295968131628e-05</internalNodes>
          <leafValues>
            1.8699312210083008e-01 -5.3428918123245239e-01</leafValues></_>
        <_>
          <internalNodes>
            0 -1 273 3.4037596196867526e-04</internalNodes>
          <leafValues>
            1.5578743815422058e-01 -6.8887728452682495e-01</leafValues></_>
        <_>
          <internalNodes>
            0 -1 403 5.7800629292614758e-05</internalNodes>
          <leafValues>
            2.6104342937469482e-01 -4.1190707683563232e-01</leafValues></_>
        <_>
          <internalNodes>
            0 -1 154 -1.2540087103843689e-01</internalNodes>
          <leafValues>
            5.5860161781311035e-01 -2.4174770712852478e-01</leafValues></_>
        <_>
          <internalNodes>
            0 -1 374 -6.3087354646995664e-04</internalNodes>
          <leafValues>
            -4.4687294960021973e-01 2.5512924790382385e-01</leafValues></_>
        <_>
          <internalNodes>
            0 -1 45 -2.0447497069835663e-01</internalNodes>
          <leafValues>
            -8.1981998682022095e-01 1.1223638802766800e-01</leafValues></_></weakClassifiers></_>
    <!-- stage 7 -->
    <_>
      <maxWeakCount>15</maxWeakCount>
      <stageThreshold>-9.6035730838775635e-01</stageThreshold>
      <weakClassifiers>
        <_>
          <internalNodes>
            0 -1 93 -2.6203174144029617e-02</internalNodes>
          <leafValues>
            6.5063571929931641e-01 -7.0577450096607208e-02</leafValues></_>
        <_>
          <internalNodes>
            0 -1 473 -2.3477827198803425e-03</internalNodes>
          <leafValues>
            4.8890641331672668e-01 -2.9778987169265747e-01</leafValues></_>
        <_>
          <internalNodes>
            0 -1 352 2.8373602617648430e-05</internalNodes>
          <leafValues>
            3.6173376441001892e-01 -4.1099905967712402e-01</leafValues></_>
        <_>
          <internalNodes>
            0 -1 82 -4.4542342424392700e-02</internalNodes>
          <leafValues>
            4.8720061779022217e-01 -2.6973894238471985e-01</leafValues></_>
        <_>
          <internalNodes>
            0 -1 328 -3.0237358063459396e-02</internalNodes>
          <leafValues>
            5.4451555013656616e-01 -2.5638100504875183e-01</leafValues></_>
        <_>
          <internalNodes>
            0 -1 293 1.0366004426032305e-03</internalNodes>
          <leafValues>
            2.2022409737110138e-01 -5.5575311183929443e-01</leafValues></_>
        <_>
          <internalNodes>
            0 -1 23 2.1501267328858376e-03</internalNodes>
          <leafValues>
            -3.7261876463890076e-01 3.3128553628921509e-01</leafValues></_>
        <_>
          <internalNodes>
            0 -1 325 -1.0919228770944756e-05</internalNodes>
          <leafValues>
            2.2897011041641235e-01 -4.5237877964973450e-01</leafValues></_>
        <_>
          <internalNodes>
            0 -1 168 -2.5706527754664421e-02</internalNodes>
          <leafValues>
            6.8553441762924194e-01 -1.6098502278327942e-01</leafValues></_>
        <_>
          <internalNodes>
            0 -1 211 -6.2352111563086510e-03</internalNodes>
          <leafValues>
            2.4873811006546021e-01 -4.6554228663444519e-01</leafValues></_>
        <_>
          <internalNodes>
            0 -1 375 -1.0292837032466196e-05</internalNodes>
          <leafValues>
            3.0493927001953125e-01 -3.0551183223724365e-01</leafValues></_>
        <_>
          <internalNodes>
            0 -1 250 2.4512999225407839e-03</internalNodes>
          <leafValues>
            -7.4452131986618042e-01 1.4869019389152527e-01</leafValues></_>
        <_>
          <internalNodes>
            0 -1 297 -1.1025376807083376e-05</internalNodes>
          <leafValues>
            1.7472015321254730e-01 -5.5947929620742798e-01</leafValues></_>
        <_>
          <internalNodes>
            0 -1 5 1.5852790325880051e-02</internalNodes>
          <leafValues>
            1.1888509988784790e-01 -7.8910249471664429e-01</leafValues></_>
        <_>
          <internalNodes>
            0 -1 51 -5.3720613941550255e-03</internalNodes>
          <leafValues>
            -7.0002770423889160e-01 1.2790092825889587e-01</leafValues></_></weakClassifiers></_>
    <!-- stage 8 -->
    <_>
      <maxWeakCount>16</maxWeakCount>
      <stageThreshold>-9.5317041873931885e-01</stageThreshold>
      <weakClassifiers>
        <_>
          <internalNodes>
            0 -1 344 9.9826618679799139e-05</internalNodes>
          <leafValues>
            5.6567889451980591e-01 -2.8012520074844360e-01</leafValues></_>
        <_>
          <internalNodes>
            0 -1 90 -3.0441153049468994e-01</internalNodes>
          <leafValues>
            4.8378026485443115e-01 -2.8618967533111572e-01</leafValues></_>
        <_>
          <internalNodes>
            0 -1 400 5.8220834034727886e-05</internalNodes>
          <leafValues>
            2.9203194379806519e-01 -3.9164343476295471e-01</leafValues></_>
        <_>
          <internalNodes>
            0 -1 236 -1.1261718100286089e-05</internalNodes>
          <leafValues>
            1.9602796435356140e-01 -5.3654599189758301e-01</leafValues></_>
        <_>
          <internalNodes>
            0 -1 354 5.7193406973965466e-05</internalNodes>
          <leafValues>
            1.8913529813289642e-01 -5.2408671379089355e-01</leafValues></_>
        <_>
          <internalNodes>
            0 -1 74 3.1085096299648285e-02</internalNodes>
          <leafValues>
            -3.0080354213714600e-01 3.3589452505111694e-01</leafValues></_>
        <_>
          <internalNodes>
            0 -1 25 -2.4478882551193237e-01</internalNodes>
          <leafValues>
            -8.8385730981826782e-01 9.8981514573097229e-02</leafValues></_>
        <_>
          <internalNodes>
            0 -1 13 5.1183700561523438e-03</internalNodes>
          <leafValues>
            -3.0772283673286438e-01 2.9591828584671021e-01</leafValues></_>
        <_>
          <internalNodes>
            0 -1 151 -7.3545856866985559e-04</internalNodes>
          <leafValues>
            1.6869328916072845e-01 -5.2577376365661621e-01</leafValues></_>
        <_>
          <internalNodes>
            0 -1 95 3.2175434753298759e-03</internalNodes>
          <leafValues>
            1.4966391026973724e-01 -6.1648559570312500e-01</leafValues></_>
        <_>
          <internalNodes>
            0 -1 246 4.4233114458620548e-03</internalNodes>
          <leafValues>
            1.4226019382476807e-01 -5.9026914834976196e-01</leafValues></_>
        <_>
          <internalNodes>
            0 -1 247 -6.9926087744534016e-03</internalNodes>
          <leafValues>
            -6.9722068309783936e-01 1.2248897552490234e-01</leafValues></_>
        <_>
          <internalNodes>
            0 -1 457 -1.5047138556838036e-02</internalNodes>
          <leafValues>
            5.5135738849639893e-01 -1.6668722033500671e-01</leafValues></_>
        <_>
          <internalNodes>
            0 -1 424 -9.5721296966075897e-03</internalNodes>
          <leafValues>
            6.1485207080841064e-01 -1.9177891314029694e-01</leafValues></_>
        <_>
          <internalNodes>
            0 -1 444 1.4527317136526108e-02</internalNodes>
          <leafValues>
            -1.5634748339653015e-01 5.7407152652740479e-01</leafValues></_>
        <_>
          <internalNodes>
            0 -1 317 -4.7833719872869551e-04</internalNodes>
          <leafValues>
            -5.9914183616638184e-01 1.6254182159900665e-01</leafValues></_></weakClassifiers></_>
    <!-- stage 9 -->
    <_>
      <maxWeakCount>14</maxWeakCount>
      <stageThreshold>-8.1244659423828125e-01</stageThreshold>
      <weakClassifiers>
        <_>
          <internalNodes>
            0 -1 65 -5.7490620762109756e-02</internalNodes>
          <leafValues>
            5.3074431419372559e-01 -4.9532711505889893e-01</leafValues></_>
        <_>
          <internalNodes>
            0 -1 451 1.7320737242698669e-03</internalNodes>
          <leafValues>
            -3.6095032095909119e-01 4.0719196200370789e-01</leafValues></_>
        <_>
          <internalNodes>
            0 -1 323 5.9367637732066214e-05</internalNodes>
          <leafValues>
            2.6726841926574707e-01 -5.4130971431732178e-01</leafValues></_>
        <_>
          <internalNodes>
            0 -1 80 -9.9862422794103622e-03</internalNodes>
          <leafValues>
            1.7984782159328461e-01 -6.2548744678497314e-01</leafValues></_>
        <_>
          <internalNodes>
            0 -1 484 -3.0255629098974168e-04</internalNodes>
          <leafValues>
            2.2262819111347198e-01 -4.8087167739868164e-01</leafValues></_>
        <_>
          <internalNodes>
            0 -1 121 -2.2614639252424240e-02</internalNodes>
          <leafValues>
            4.0144866704940796e-01 -2.6345133781433105e-01</leafValues></_>
        <_>
          <internalNodes>
            0 -1 200 1.8432863056659698e-02</internalNodes>
          <leafValues>
            -6.3800150156021118e-01 1.3356800377368927e-01</leafValues></_>
        <_>
          <internalNodes>
            0 -1 299 2.6434921892359853e-04</internalNodes>
          <leafValues>
            1.3027872145175934e-01 -7.6199173927307129e-01</leafValues></_>
        <_>
          <internalNodes>
            0 -1 132 7.5810011476278305e-03</internalNodes>
          <leafValues>
            -2.1393480896949768e-01 4.7403338551521301e-01</leafValues></_>
        <_>
          <internalNodes>
            0 -1 303 1.5976764261722565e-02</internalNodes>
          <leafValues>
            -2.0301543176174164e-01 4.7334477305412292e-01</leafValues></_>
        <_>
          <internalNodes>
            0 -1 198 -1.3601395767182112e-03</internalNodes>
          <leafValues>
            2.0750917494297028e-01 -4.9854201078414917e-01</leafValues></_>
        <_>
          <internalNodes>
            0 -1 487 -2.7063395828008652e-02</internalNodes>
          <leafValues>
            -6.4124464988708496e-01 1.0843969136476517e-01</leafValues></_>
        <_>
          <internalNodes>
            0 -1 239 -1.1755769264709670e-05</internalNodes>
          <leafValues>
            1.4690375328063965e-01 -5.2994507551193237e-01</leafValues></_>
        <_>
          <internalNodes>
            0 -1 52 -7.8847706317901611e-03</internalNodes>
          <leafValues>
            -7.0568287372589111e-01 1.1466588079929352e-01</leafValues></_></weakClassifiers></_>
    <!-- stage 10 -->
    <_>
      <maxWeakCount>16</maxWeakCount>
      <stageThreshold>-9.1461825370788574e-01</stageThreshold>
      <weakClassifiers>
        <_>
          <internalNodes>
            0 -1 249 3.6823913455009460e-02</internalNodes>
          <leafValues>
            -7.1689498424530029e-01 4.6885490417480469e-01</leafValues></_>
        <_>
          <internalNodes>
            0 -1 382 5.9817371948156506e-05</internalNodes>
          <leafValues>
            3.1993442773818970e-01 -4.8193588852882385e-01</leafValues></_>
        <_>
          <internalNodes>
            0 -1 40 1.6299530863761902e-02</internalNodes>
          <leafValues>
            -3.6424955725669861e-01 3.7295791506767273e-01</leafValues></_>
        <_>
          <internalNodes>
            0 -1 316 -1.0292837032466196e-05</internalNodes>
          <leafValues>
            2.5210615992546082e-01 -4.2672878503799438e-01</leafValues></_>
        <_>
          <internalNodes>
            0 -1 425 6.1388796893879771e-05</internalNodes>
          <leafValues>
            3.2712179422378540e-01 -3.3484336733818054e-01</leafValues></_>
        <_>
          <internalNodes>
            0 -1 369 5.7997796684503555e-02</internalNodes>
          <leafValues>
            -3.2467162609100342e-01 4.4490462541580200e-01</leafValues></_>
        <_>
          <internalNodes>
            0 -1 421 2.2413220722228289e-04</internalNodes>
          <leafValues>
            2.9670020937919617e-01 -3.7134262919425964e-01</leafValues></_>
        <_>
          <internalNodes>
            0 -1 286 2.8985224664211273e-02</internalNodes>
          <leafValues>
            -1.5828396379947662e-01 5.1730632781982422e-01</leafValues></_>
        <_>
          <internalNodes>
            0 -1 106 -2.9320705682039261e-02</internalNodes>
          <leafValues>
            3.5565656423568726e-01 -3.1221008300781250e-01</leafValues></_>
        <_>
          <internalNodes>
            0 -1 37 -6.7667866824194789e-04</internalNodes>
          <leafValues>
            2.9645010828971863e-01 -3.2026210427284241e-01</leafValues></_>
        <_>
          <internalNodes>
            0 -1 360 9.8825590685009956e-03</internalNodes>
          <leafValues>
            1.9709298014640808e-01 -5.0616931915283203e-01</leafValues></_>
        <_>
          <internalNodes>
            0 -1 406 -5.5254548788070679e-03</internalNodes>
          <leafValues>
            6.2613320350646973e-01 -1.5917988121509552e-01</leafValues></_>
        <_>
          <internalNodes>
            0 -1 177 -2.3752078413963318e-02</internalNodes>
          <leafValues>
            2.3258964717388153e-01 -4.3464803695678711e-01</leafValues></_>
        <_>
          <internalNodes>
            0 -1 454 2.8831494273617864e-04</internalNodes>
          <leafValues>
            1.3244450092315674e-01 -6.4047461748123169e-01</leafValues></_>
        <_>
          <internalNodes>
            0 -1 271 4.0755756199359894e-03</internalNodes>
          <leafValues>
            1.1898537725210190e-01 -6.4237242937088013e-01</leafValues></_>
        <_>
          <internalNodes>
            0 -1 188 1.2869655154645443e-02</internalNodes>
          <leafValues>
            -1.9406466186046600e-01 4.9558046460151672e-01</leafValues></_></weakClassifiers></_>
    <!-- stage 11 -->
    <_>
      <maxWeakCount>18</maxWeakCount>
      <stageThreshold>-7.6767861843109131e-01</stageThreshold>
      <weakClassifiers>
        <_>
          <internalNodes>
            0 -1 58 7.2500640526413918e-03</internalNodes>
          <leafValues>
            4.8829951882362366e-01 -4.5238095521926880e-01</leafValues></_>
        <_>
          <internalNodes>
            0 -1 292 -7.6980981975793839e-04</internalNodes>
          <leafValues>
            -5.8351922035217285e-01 2.3263902962207794e-01</leafValues></_>
        <_>
          <internalNodes>
            0 -1 477 -1.0929196141660213e-03</internalNodes>
          <leafValues>
            3.5052976012229919e-01 -3.0868464708328247e-01</leafValues></_>
        <_>
          <internalNodes>
            0 -1 320 -1.1026178981410339e-05</internalNodes>
          <leafValues>
            2.0796902477741241e-01 -4.6051001548767090e-01</leafValues></_>
        <_>
          <internalNodes>
            0 -1 378 6.4360741816926748e-05</internalNodes>
          <leafValues>
            1.9353769719600677e-01 -4.8490071296691895e-01</leafValues></_>
        <_>
          <internalNodes>
            0 -1 67 2.5899155065417290e-02</internalNodes>
          <leafValues>
            -4.5972904562950134e-01 2.1131901443004608e-01</leafValues></_>
        <_>
          <internalNodes>
            0 -1 284 -1.4032509177923203e-02</internalNodes>
          <leafValues>
            5.7001525163650513e-01 -1.5496712923049927e-01</leafValues></_>
        <_>
          <internalNodes>
            0 -1 368 4.0388442575931549e-03</internalNodes>
          <leafValues>
            -5.2027189731597900e-01 1.3831542432308197e-01</leafValues></_>
        <_>
          <internalNodes>
            0 -1 395 2.9549057217082009e-05</internalNodes>
          <leafValues>
            2.5486856698989868e-01 -3.3065009117126465e-01</leafValues></_>
        <_>
          <internalNodes>
            0 -1 203 -1.2070946395397186e-03</internalNodes>
          <leafValues>
            1.9049665331840515e-01 -4.4553288817405701e-01</leafValues></_>
        <_>
          <internalNodes>
            0 -1 73 -2.7132050599902868e-03</internalNodes>
          <leafValues>
            5.7366478443145752e-01 -1.4820806682109833e-01</leafValues></_>
        <_>
          <internalNodes>
            0 -1 34 6.3214842230081558e-03</internalNodes>
          <leafValues>
            -2.8731647133827209e-01 3.8657072186470032e-01</leafValues></_>
        <_>
          <internalNodes>
            0 -1 235 -1.3947528786957264e-03</internalNodes>
          <leafValues>
            -6.3266891241073608e-01 1.5072262287139893e-01</leafValues></_>
        <_>
          <internalNodes>
            0 -1 79 -6.4468514174222946e-03</internalNodes>
          <leafValues>
            -6.3547575473785400e-01 1.2382264435291290e-01</leafValues></_>
        <_>
          <internalNodes>
            0 -1 185 -4.9313627183437347e-02</internalNodes>
          <leafValues>
            5.9640794992446899e-01 -1.6292075812816620e-01</leafValues></_>
        <_>
          <internalNodes>
            0 -1 307 -5.6395247578620911e-02</internalNodes>
          <leafValues>
            5.1335614919662476e-01 -1.6598208248615265e-01</leafValues></_>
        <_>
          <internalNodes>
            0 -1 331 -9.0775936841964722e-03</internalNodes>
          <leafValues>
            6.3007509708404541e-01 -1.2078778445720673e-01</leafValues></_>
        <_>
          <internalNodes>
            0 -1 267 1.9336663186550140e-02</internalNodes>
          <leafValues>
            -1.4792673289775848e-01 4.9810981750488281e-01</leafValues></_></weakClassifiers></_>
    <!-- stage 12 -->
    <_>
      <maxWeakCount>18</maxWeakCount>
      <stageThreshold>-9.6038812398910522e-01</stageThreshold>
      <weakClassifiers>
        <_>
          <internalNodes>
            0 -1 70 -4.1366834193468094e-02</internalNodes>
          <leafValues>
            5.2076125144958496e-01 -1.7687074840068817e-01</leafValues></_>
        <_>
          <internalNodes>
            0 -1 336 4.6136777848005295e-02</internalNodes>
          <leafValues>
            -2.5531166791915894e-01 4.2244714498519897e-01</leafValues></_>
        <_>
          <internalNodes>
            0 -1 240 -2.4101205053739250e-04</internalNodes>
          <leafValues>
            1.9969065487384796e-01 -5.2507334947586060e-01</leafValues></_>
        <_>
          <internalNodes>
            0 -1 355 -1.8204018473625183e-02</internalNodes>
          <leafValues>
            5.5904173851013184e-01 -1.8431086838245392e-01</leafValues></_>
        <_>
          <internalNodes>
            0 -1 184 -3.0053712427616119e-02</internalNodes>
          <leafValues>
            2.5863444805145264e-01 -3.4371784329414368e-01</leafValues></_>
        <_>
          <internalNodes>
            0 -1 167 -5.4862983524799347e-03</internalNodes>
          <leafValues>
            3.9410734176635742e-01 -2.0861934125423431e-01</leafValues></_>
        <_>
          <internalNodes>
            0 -1 4 2.9779239557683468e-03</internalNodes>
          <leafValues>
            1.7231228947639465e-01 -4.8021253943443298e-01</leafValues></_>
        <_>
          <internalNodes>
            0 -1 46 -2.0591431856155396e-01</internalNodes>
          <leafValues>
            -8.5492634773254395e-01 1.1150845885276794e-01</leafValues></_>
        <_>
          <internalNodes>
            0 -1 357 6.3765946833882481e-05</internalNodes>
          <leafValues>
            1.7982639372348785e-01 -4.4242078065872192e-01</leafValues></_>
        <_>
          <internalNodes>
            0 -1 450 -2.6645543985068798e-03</internalNodes>
          <leafValues>
            2.9424813389778137e-01 -3.0220457911491394e-01</leafValues></_>
        <_>
          <internalNodes>
            0 -1 56 -3.0902460217475891e-02</internalNodes>
          <leafValues>
            3.5937163233757019e-01 -2.1762432157993317e-01</leafValues></_>
        <_>
          <internalNodes>
            0 -1 419 -2.1622865460813046e-03</internalNodes>
          <leafValues>
            2.5490504503250122e-01 -3.2106664776802063e-01</leafValues></_>
        <_>
          <internalNodes>
            0 -1 108 1.0105789639055729e-02</internalNodes>
          <leafValues>
            -1.4530271291732788e-01 5.7137793302536011e-01</leafValues></_>
        <_>
          <internalNodes>
            0 -1 256 1.7065135762095451e-04</internalNodes>
          <leafValues>
            1.3237951695919037e-01 -6.8297529220581055e-01</leafValues></_>
        <_>
          <internalNodes>
            0 -1 278 -8.6283433483913541e-04</internalNodes>
          <leafValues>
            -7.6692134141921997e-01 9.8257653415203094e-02</leafValues></_>
        <_>
          <internalNodes>
            0 -1 485 -2.5794629473239183e-03</internalNodes>
          <leafValues>
            2.6692655682563782e-01 -3.4265393018722534e-01</leafValues></_>
        <_>
          <internalNodes>
            0 -1 432 -3.0270502902567387e-03</internalNodes>
          <leafValues>
            -7.1019577980041504e-01 1.1350353062152863e-01</leafValues></_>
        <_>
          <internalNodes>
            0 -1 104 -1.2673612684011459e-02</internalNodes>
          <leafValues>
            4.8473033308982849e-01 -1.7059223353862762e-01</leafValues></_></weakClassifiers></_>
    <!-- stage 13 -->
    <_>
      <maxWeakCount>21</maxWeakCount>
      <stageThreshold>-7.8841882944107056e-01</stageThreshold>
      <weakClassifiers>
        <_>
          <internalNodes>
            0 -1 270 1.2754602357745171e-03</internalNodes>
          <leafValues>
            4.9979731440544128e-01 -3.0715936422348022e-01</leafValues></_>
        <_>
          <internalNodes>
            0 -1 346 -1.0486992323421873e-05</internalNodes>
          <leafValues>
            3.0787163972854614e-01 -3.6027017235755920e-01</leafValues></_>
        <_>
          <internalNodes>
            0 -1 489 -1.7295980360358953e-03</internalNodes>
          <leafValues>
            2.6385414600372314e-01 -4.0731298923492432e-01</leafValues></_>
        <_>
          <internalNodes>
            0 -1 36 5.3791925311088562e-02</internalNodes>
          <leafValues>
            -1.6981126368045807e-01 5.7895660400390625e-01</leafValues></_>
        <_>
          <internalNodes>
            0 -1 144 5.2536446601152420e-03</internalNodes>
          <leafValues>
            -2.4460457265377045e-01 3.9938455820083618e-01</leafValues></_>
        <_>
          <internalNodes>
            0 -1 422 -2.3815983149688691e-04</internalNodes>
          <leafValues>
            -3.9740282297134399e-01 2.5295397639274597e-01</leafValues></_>
        <_>
          <internalNodes>
            0 -1 350 6.2837463337928057e-04</internalNodes>
          <leafValues>
            1.2027859687805176e-01 -5.9585875272750854e-01</leafValues></_>
        <_>
          <internalNodes>
            0 -1 290 8.1078127026557922e-02</internalNodes>
          <leafValues>
            -4.5524597167968750e-01 1.6729275882244110e-01</leafValues></_>
        <_>
          <internalNodes>
            0 -1 276 -1.0417273188068066e-05</internalNodes>
          <leafValues>
            1.8756979703903198e-01 -3.7719327211380005e-01</leafValues></_>
        <_>
          <internalNodes>
            0 -1 163 -1.8084978684782982e-02</internalNodes>
          <leafValues>
            2.2235004603862762e-01 -3.2298246026039124e-01</leafValues></_>
        <_>
          <internalNodes>
            0 -1 421 9.3383641797117889e-05</internalNodes>
          <leafValues>
            2.7172955870628357e-01 -2.8014373779296875e-01</leafValues></_>
        <_>
          <internalNodes>
            0 -1 426 6.7184278741478920e-03</internalNodes>
          <leafValues>
            -1.7774836719036102e-01 4.6931517124176025e-01</leafValues></_>
        <_>
          <internalNodes>
            0 -1 444 -4.0748137980699539e-03</internalNodes>
          <leafValues>
            6.1447030305862427e-01 -1.3291500508785248e-01</leafValues></_>
        <_>
          <internalNodes>
            0 -1 1 1.7055151984095573e-03</internalNodes>
          <leafValues>
            -3.3519020676612854e-01 2.4804635345935822e-01</leafValues></_>
        <_>
          <internalNodes>
            0 -1 55 -2.1322206594049931e-03</internalNodes>
          <leafValues>
            -8.0364531278610229e-01 9.3348450958728790e-02</leafValues></_>
        <_>
          <internalNodes>
            0 -1 50 -8.1879515200853348e-03</internalNodes>
          <leafValues>
            -5.6901502609252930e-01 1.0956925898790359e-01</leafValues></_>
        <_>
          <internalNodes>
            0 -1 220 5.6533869355916977e-03</internalNodes>
          <leafValues>
            7.2526864707469940e-02 -8.8166886568069458e-01</leafValues></_>
        <_>
          <internalNodes>
            0 -1 456 8.7768028606660664e-05</internalNodes>
          <leafValues>
            1.6275903582572937e-01 -3.9900183677673340e-01</leafValues></_>
        <_>
          <internalNodes>
            0 -1 289 -4.9426835030317307e-03</internalNodes>
          <leafValues>
            4.8842009902000427e-01 -1.5450316667556763e-01</leafValues></_>
        <_>
          <internalNodes>
            0 -1 231 6.7158594727516174e-02</internalNodes>
          <leafValues>
            -2.3171748220920563e-01 3.6620122194290161e-01</leafValues></_>
        <_>
          <internalNodes>
            0 -1 186 -2.8000460937619209e-02</internalNodes>
          <leafValues>
            6.7129111289978027e-01 -1.2378373742103577e-01</leafValues></_></weakClassifiers></_>
    <!-- stage 14 -->
    <_>
      <maxWeakCount>19</maxWeakCount>
      <stageThreshold>-8.9720851182937622e-01</stageThreshold>
      <weakClassifiers>
        <_>
          <internalNodes>
            0 -1 345 9.6299068536609411e-04</internalNodes>
          <leafValues>
            4.9643704295158386e-01 -4.1176471114158630e-01</leafValues></_>
        <_>
          <internalNodes>
            0 -1 109 -1.8011985346674919e-02</internalNodes>
          <leafValues>
            4.8404219746589661e-01 -2.0092910528182983e-01</leafValues></_>
        <_>
          <internalNodes>
            0 -1 291 -1.1285617802059278e-05</internalNodes>
          <leafValues>
            2.4384713172912598e-01 -4.2483255267143250e-01</leafValues></_>
        <_>
          <internalNodes>
            0 -1 403 3.3929380151676014e-05</internalNodes>
          <leafValues>
            2.5654697418212891e-01 -4.1059246659278870e-01</leafValues></_>
        <_>
          <internalNodes>
            0 -1 480 -2.9297419823706150e-03</internalNodes>
          <leafValues>
            3.2230690121650696e-01 -3.2541450858116150e-01</leafValues></_>
        <_>
          <internalNodes>
            0 -1 230 -5.9097036719322205e-02</internalNodes>
          <leafValues>
            1.8079932034015656e-01 -4.4109475612640381e-01</leafValues></_>
        <_>
          <internalNodes>
            0 -1 460 3.4931421396322548e-05</internalNodes>
          <leafValues>
            2.1123017370700836e-01 -4.2815649509429932e-01</leafValues></_>
        <_>
          <internalNodes>
            0 -1 441 -1.9789254292845726e-04</internalNodes>
          <leafValues>
            -4.2019939422607422e-01 2.2968439757823944e-01</leafValues></_>
        <_>
          <internalNodes>
            0 -1 19 3.1969603151082993e-03</internalNodes>
          <leafValues>
            -2.4524454772472382e-01 3.4013640880584717e-01</leafValues></_>
        <_>
          <internalNodes>
            0 -1 411 -3.1511891633272171e-02</internalNodes>
          <leafValues>
            4.6565350890159607e-01 -1.7641641199588776e-01</leafValues></_>
        <_>
          <internalNodes>
            0 -1 31 8.3780866116285324e-03</internalNodes>
          <leafValues>
            1.1978183686733246e-01 -6.9644105434417725e-01</leafValues></_>
        <_>
          <internalNodes>
            0 -1 68 -5.0548543222248554e-03</internalNodes>
          <leafValues>
            5.4381257295608521e-01 -1.5373155474662781e-01</leafValues></_>
        <_>
          <internalNodes>
            0 -1 35 3.0088592320680618e-02</internalNodes>
          <leafValues>
            -1.9192221760749817e-01 4.7541040182113647e-01</leafValues></_>
        <_>
          <internalNodes>
            0 -1 257 -1.5955278649926186e-03</internalNodes>
          <leafValues>
            2.1568390727043152e-01 -4.1377586126327515e-01</leafValues></_>
        <_>
          <internalNodes>
            0 -1 327 3.3110252843471244e-05</internalNodes>
          <leafValues>
            1.6172744333744049e-01 -4.8908987641334534e-01</leafValues></_>
        <_>
          <internalNodes>
            0 -1 241 -5.8648951351642609e-02</internalNodes>
          <leafValues>
            7.8787124156951904e-01 -1.0265310108661652e-01</leafValues></_>
        <_>
          <internalNodes>
            0 -1 216 -1.1996301509498153e-05</internalNodes>
          <leafValues>
            1.6560484468936920e-01 -5.6796336174011230e-01</leafValues></_>
        <_>
          <internalNodes>
            0 -1 302 -1.0682819265639409e-05</internalNodes>
          <leafValues>
            3.3091330528259277e-01 -2.4734447896480560e-01</leafValues></_>
        <_>
          <internalNodes>
            0 -1 309 -2.9359507607296109e-04</internalNodes>
          <leafValues>
            -3.3472687005996704e-01 2.2551576793193817e-01</leafValues></_></weakClassifiers></_>
    <!-- stage 15 -->
    <_>
      <maxWeakCount>21</maxWeakCount>
      <stageThreshold>-8.5748451948165894e-01</stageThreshold>
      <weakClassifiers>
        <_>
          <internalNodes>
            0 -1 155 -1.7751456471160054e-04</internalNodes>
          <leafValues>
            5.1673817634582520e-01 -1.8245613574981689e-01</leafValues></_>
        <_>
          <internalNodes>
            0 -1 370 -2.7823948767036200e-04</internalNodes>
          <leafValues>
            -3.9395812153816223e-01 2.6702478528022766e-01</leafValues></_>
        <_>
          <internalNodes>
            0 -1 392 -1.6661429777741432e-02</internalNodes>
          <leafValues>
            3.9467260241508484e-01 -2.2453276813030243e-01</leafValues></_>
        <_>
          <internalNodes>
            0 -1 491 -4.4109364971518517e-03</internalNodes>
          <leafValues>
            3.1722354888916016e-01 -2.7556419372558594e-01</leafValues></_>
        <_>
          <internalNodes>
            0 -1 312 -1.0910660421359353e-05</internalNodes>
          <leafValues>
            1.8711589276790619e-01 -4.4092467427253723e-01</leafValues></_>
        <_>
          <internalNodes>
            0 -1 207 4.5437547378242016e-03</internalNodes>
          <leafValues>
            1.6146332025527954e-01 -5.7801502943038940e-01</leafValues></_>
        <_>
          <internalNodes>
            0 -1 229 5.8099899441003799e-02</internalNodes>
          <leafValues>
            -1.5534879267215729e-01 5.8735036849975586e-01</leafValues></_>
        <_>
          <internalNodes>
            0 -1 128 6.4822658896446228e-03</internalNodes>
          <leafValues>
            -2.8900080919265747e-01 2.7729862928390503e-01</leafValues></_>
        <_>
          <internalNodes>
            0 -1 136 -8.1880511716008186e-03</internalNodes>
          <leafValues>
            1.9590210914611816e-01 -4.3856325745582581e-01</leafValues></_>
        <_>
          <internalNodes>
            0 -1 21 -2.0003086328506470e-01</internalNodes>
          <leafValues>
            -5.1986497640609741e-01 1.6139473021030426e-01</leafValues></_>
        <_>
          <internalNodes>
            0 -1 383 1.6340627335011959e-03</internalNodes>
          <leafValues>
            1.0539551079273224e-01 -6.5010696649551392e-01</leafValues></_>
        <_>
          <internalNodes>
            0 -1 49 3.7971306592226028e-03</internalNodes>
          <leafValues>
            1.0042697936296463e-01 -6.9933837652206421e-01</leafValues></_>
        <_>
          <internalNodes>
            0 -1 208 -6.8983570672571659e-03</internalNodes>
          <leafValues>
            -7.3653882741928101e-01 8.5439972579479218e-02</leafValues></_>
        <_>
          <internalNodes>
            0 -1 213 1.9628625363111496e-02</internalNodes>
          <leafValues>
            -1.4211031794548035e-01 6.1496156454086304e-01</leafValues></_>
        <_>
          <internalNodes>
            0 -1 375 6.4300489611923695e-05</internalNodes>
          <leafValues>
            2.2520428895950317e-01 -4.2660343647003174e-01</leafValues></_>
        <_>
          <internalNodes>
            0 -1 353 2.5212695822119713e-02</internalNodes>
          <leafValues>
            -1.2478944659233093e-01 6.5041559934616089e-01</leafValues></_>
        <_>
          <internalNodes>
            0 -1 459 3.1783958547748625e-05</internalNodes>
          <leafValues>
            1.8877248466014862e-01 -4.2730864882469177e-01</leafValues></_>
        <_>
          <internalNodes>
            0 -1 398 -4.4343605637550354e-02</internalNodes>
          <leafValues>
            3.9124715328216553e-01 -2.0541056990623474e-01</leafValues></_>
        <_>
          <internalNodes>
            0 -1 119 2.6284907013177872e-02</internalNodes>
          <leafValues>
            -1.7484025657176971e-01 4.3503630161285400e-01</leafValues></_>
        <_>
          <internalNodes>
            0 -1 329 -1.0744638741016388e-02</internalNodes>
          <leafValues>
            5.9588110446929932e-01 -1.1892958730459213e-01</leafValues></_>
        <_>
          <internalNodes>
            0 -1 361 -5.5113360285758972e-03</internalNodes>
          <leafValues>
            -6.5449148416519165e-01 1.1607752740383148e-01</leafValues></_></weakClassifiers></_>
    <!-- stage 16 -->
    <_>
      <maxWeakCount>22</maxWeakCount>
      <stageThreshold>-9.7928315401077271e-01</stageThreshold>
      <weakClassifiers>
        <_>
          <internalNodes>
            0 -1 324 7.8533001942560077e-04</internalNodes>
          <leafValues>
            -5.2226722240447998e-01 4.6324914693832397e-01</leafValues></_>
        <_>
          <internalNodes>
            0 -1 152 -8.7707798229530454e-04</internalNodes>
          <leafValues>
            2.5509718060493469e-01 -5.0951820611953735e-01</leafValues></_>
        <_>
          <internalNodes>
            0 -1 28 1.0366425849497318e-02</internalNodes>
          <leafValues>
            -4.0210956335067749e-01 2.6985424757003784e-01</leafValues></_>
        <_>
          <internalNodes>
            0 -1 244 2.3334287106990814e-02</internalNodes>
          <leafValues>
            -1.4744089543819427e-01 6.4698636531829834e-01</leafValues></_>
        <_>
          <internalNodes>
            0 -1 268 2.4399377871304750e-03</internalNodes>
          <leafValues>
            1.5006874501705170e-01 -5.1393139362335205e-01</leafValues></_>
        <_>
          <internalNodes>
            0 -1 434 2.4586843326687813e-02</internalNodes>
          <leafValues>
            -2.0546443760395050e-01 4.1502225399017334e-01</leafValues></_>
        <_>
          <internalNodes>
            0 -1 381 8.7080465164035559e-04</internalNodes>
          <leafValues>
            1.5147270262241364e-01 -6.3948732614517212e-01</leafValues></_>
        <_>
          <internalNodes>
            0 -1 172 -1.1990554630756378e-02</internalNodes>
          <leafValues>
            3.6717519164085388e-01 -2.0946776866912842e-01</leafValues></_>
        <_>
          <internalNodes>
            0 -1 142 -8.3992213010787964e-02</internalNodes>
          <leafValues>
            5.8240324258804321e-01 -1.4549806714057922e-01</leafValues></_>
        <_>
          <internalNodes>
            0 -1 420 3.3035474189091474e-05</internalNodes>
          <leafValues>
            3.5741516947746277e-01 -2.4846233427524567e-01</leafValues></_>
        <_>
          <internalNodes>
            0 -1 238 -1.1050141438317951e-05</internalNodes>
          <leafValues>
            2.3890148103237152e-01 -3.4688383340835571e-01</leafValues></_>
        <_>
          <internalNodes>
            0 -1 468 -3.1100544147193432e-03</internalNodes>
          <leafValues>
            4.2032486200332642e-01 -1.9151403009891510e-01</leafValues></_>
        <_>
          <internalNodes>
            0 -1 401 5.7096272939816117e-05</internalNodes>
          <leafValues>
            2.4195049703121185e-01 -3.6200311779975891e-01</leafValues></_>
        <_>
          <internalNodes>
            0 -1 345 2.9168947366997600e-04</internalNodes>
          <leafValues>
            1.6805413365364075e-01 -4.8180219531059265e-01</leafValues></_>
        <_>
          <internalNodes>
            0 -1 255 -3.8239924469962716e-04</internalNodes>
          <leafValues>
            1.9062139093875885e-01 -4.0091150999069214e-01</leafValues></_>
        <_>
          <internalNodes>
            0 -1 329 -7.1805613115429878e-03</internalNodes>
          <leafValues>
            4.8357206583023071e-01 -1.7131255567073822e-01</leafValues></_>
        <_>
          <internalNodes>
            0 -1 165 -1.0770475491881371e-03</internalNodes>
          <leafValues>
            4.9080657958984375e-01 -1.6913239657878876e-01</leafValues></_>
        <_>
          <internalNodes>
            0 -1 305 4.6022869646549225e-02</internalNodes>
          <leafValues>
            -1.0716807097196579e-01 5.8570247888565063e-01</leafValues></_>
        <_>
          <internalNodes>
            0 -1 86 -3.2555562257766724e-01</internalNodes>
          <leafValues>
            6.1495882272720337e-01 -1.1736308783292770e-01</leafValues></_>
        <_>
          <internalNodes>
            0 -1 402 -7.3959138244390488e-03</internalNodes>
          <leafValues>
            5.3289967775344849e-01 -1.4541289210319519e-01</leafValues></_>
        <_>
          <internalNodes>
            0 -1 116 -4.6047167852520943e-03</internalNodes>
          <leafValues>
            -5.7962840795516968e-01 1.2711313366889954e-01</leafValues></_>
        <_>
          <internalNodes>
            0 -1 453 3.5795211791992188e-02</internalNodes>
          <leafValues>
            -1.2160402536392212e-01 6.0513156652450562e-01</leafValues></_></weakClassifiers></_>
    <!-- stage 17 -->
    <_>
      <maxWeakCount>23</maxWeakCount>
      <stageThreshold>-9.2323619127273560e-01</stageThreshold>
      <weakClassifiers>
        <_>
          <internalNodes>
            0 -1 111 -6.9611258804798126e-03</internalNodes>
          <leafValues>
            5.3288590908050537e-01 -1.3684210181236267e-01</leafValues></_>
        <_>
          <internalNodes>
            0 -1 339 -1.0682956599339377e-05</internalNodes>
          <leafValues>
            2.6245906949043274e-01 -3.5398507118225098e-01</leafValues></_>
        <_>
          <internalNodes>
            0 -1 386 -1.8639664351940155e-01</internalNodes>
          <leafValues>
            -5.9840357303619385e-01 1.2546758353710175e-01</leafValues></_>
        <_>
          <internalNodes>
            0 -1 234 -8.1517938524484634e-03</internalNodes>
          <leafValues>
            2.6021799445152283e-01 -3.1273642182350159e-01</leafValues></_>
        <_>
          <internalNodes>
            0 -1 333 -2.0416710525751114e-02</internalNodes>
          <leafValues>
            6.6278028488159180e-01 -1.3140211999416351e-01</leafValues></_>
        <_>
          <internalNodes>
            0 -1 221 -1.1833610187750310e-05</internalNodes>
          <leafValues>
            1.4047454297542572e-01 -4.6714246273040771e-01</leafValues></_>
        <_>
          <internalNodes>
            0 -1 96 2.2184234112501144e-02</internalNodes>
          <leafValues>
            -2.4197459220886230e-01 3.7326917052268982e-01</leafValues></_>
        <_>
          <internalNodes>
            0 -1 394 -2.4252948060166091e-04</internalNodes>
          <leafValues>
            -4.2972418665885925e-01 1.8521556258201599e-01</leafValues></_>
        <_>
          <internalNodes>
            0 -1 354 3.0543174943886697e-05</internalNodes>
          <leafValues>
            1.6430118680000305e-01 -5.0380605459213257e-01</leafValues></_>
        <_>
          <internalNodes>
            0 -1 332 6.8086823448538780e-03</internalNodes>
          <leafValues>
            -1.2775976955890656e-01 6.5907377004623413e-01</leafValues></_>
        <_>
          <internalNodes>
            0 -1 311 5.9063546359539032e-04</internalNodes>
          <leafValues>
            -6.2821000814437866e-01 1.4562058448791504e-01</leafValues></_>
        <_>
          <internalNodes>
            0 -1 170 3.9877332746982574e-02</internalNodes>
          <leafValues>
            1.1159437149763107e-01 -6.3162106275558472e-01</leafValues></_>
        <_>
          <internalNodes>
            0 -1 287 7.1257324889302254e-03</internalNodes>
          <leafValues>
            -5.3482592105865479e-01 1.2315288931131363e-01</leafValues></_>
        <_>
          <internalNodes>
            0 -1 282 -5.0905719399452209e-04</internalNodes>
          <leafValues>
            1.6783590614795685e-01 -4.3924203515052795e-01</leafValues></_>
        <_>
          <internalNodes>
            0 -1 335 4.3551530689001083e-03</internalNodes>
          <leafValues>
            -2.2507236897945404e-01 3.1653523445129395e-01</leafValues></_>
        <_>
          <internalNodes>
            0 -1 443 3.2321473554475233e-05</internalNodes>
          <leafValues>
            3.7162798643112183e-01 -1.8942581117153168e-01</leafValues></_>
        <_>
          <internalNodes>
            0 -1 440 1.5999346971511841e-02</internalNodes>
          <leafValues>
            -2.2738419473171234e-01 3.1583005189895630e-01</leafValues></_>
        <_>
          <internalNodes>
            0 -1 210 -2.7703111991286278e-03</internalNodes>
          <leafValues>
            1.1030723154544830e-01 -6.0455530881881714e-01</leafValues></_>
        <_>
          <internalNodes>
            0 -1 410 -6.5828706137835979e-03</internalNodes>
          <leafValues>
            6.7354357242584229e-01 -1.1168208718299866e-01</leafValues></_>
        <_>
          <internalNodes>
            0 -1 173 -7.5847357511520386e-03</internalNodes>
          <leafValues>
            6.0566961765289307e-01 -1.1982505768537521e-01</leafValues></_>
        <_>
          <internalNodes>
            0 -1 48 -2.7233276050537825e-03</internalNodes>
          <leafValues>
            -5.2803885936737061e-01 1.3967327773571014e-01</leafValues></_>
        <_>
          <internalNodes>
            0 -1 130 2.1869475021958351e-03</internalNodes>
          <leafValues>
            1.2961515784263611e-01 -4.7790488600730896e-01</leafValues></_>
        <_>
          <internalNodes>
            0 -1 412 2.2059388458728790e-02</internalNodes>
          <leafValues>
            -1.3451161980628967e-01 6.3733440637588501e-01</leafValues></_></weakClassifiers></_>
    <!-- stage 18 -->
    <_>
      <maxWeakCount>21</maxWeakCount>
      <stageThreshold>-6.1313468217849731e-01</stageThreshold>
      <weakClassifiers>
        <_>
          <internalNodes>
            0 -1 112 -2.4489598348736763e-02</internalNodes>
          <leafValues>
            4.8606061935424805e-01 -2.4235294759273529e-01</leafValues></_>
        <_>
          <internalNodes>
            0 -1 61 2.4348888546228409e-03</internalNodes>
          <leafValues>
            -1.4027969539165497e-01 5.8519852161407471e-01</leafValues></_>
        <_>
          <internalNodes>
            0 -1 281 -1.1641715900623240e-05</internalNodes>
          <leafValues>
            1.6598556935787201e-01 -4.8216459155082703e-01</leafValues></_>
        <_>
          <internalNodes>
            0 -1 379 1.0064664820674807e-04</internalNodes>
          <leafValues>
            1.6238814592361450e-01 -4.6133419871330261e-01</leafValues></_>
        <_>
          <internalNodes>
            0 -1 464 -1.6225886065512896e-03</internalNodes>
          <leafValues>
            2.7730143070220947e-01 -2.5378778576850891e-01</leafValues></_>
        <_>
          <internalNodes>
            0 -1 445 7.7315460657700896e-05</internalNodes>
          <leafValues>
            3.0730193853378296e-01 -2.8815329074859619e-01</leafValues></_>
        <_>
          <internalNodes>
            0 -1 88 5.5501963943243027e-03</internalNodes>
          <leafValues>
            -2.9190069437026978e-01 2.7614152431488037e-01</leafValues></_>
        <_>
          <internalNodes>
            0 -1 435 -8.2563143223524094e-05</internalNodes>
          <leafValues>
            -3.7268504500389099e-01 2.2440680861473083e-01</leafValues></_>
        <_>
          <internalNodes>
            0 -1 243 -4.0700426325201988e-05</internalNodes>
          <leafValues>
            3.2494148612022400e-01 -2.3436686396598816e-01</leafValues></_>
        <_>
          <internalNodes>
            0 -1 156 1.4180951984599233e-03</internalNodes>
          <leafValues>
            1.5795293450355530e-01 -4.9316260218620300e-01</leafValues></_>
        <_>
          <internalNodes>
            0 -1 393 1.0559992369962856e-04</internalNodes>
          <leafValues>
            2.4716724455356598e-01 -2.9717710614204407e-01</leafValues></_>
        <_>
          <internalNodes>
            0 -1 493 1.6864970326423645e-02</internalNodes>
          <leafValues>
            1.1941172927618027e-01 -6.9774061441421509e-01</leafValues></_>
        <_>
          <internalNodes>
            0 -1 22 -1.3317529112100601e-02</internalNodes>
          <leafValues>
            -7.1395879983901978e-01 9.0024814009666443e-02</leafValues></_>
        <_>
          <internalNodes>
            0 -1 334 4.8613347113132477e-02</internalNodes>
          <leafValues>
            -1.6100881993770599e-01 4.9546954035758972e-01</leafValues></_>
        <_>
          <internalNodes>
            0 -1 123 3.1311102211475372e-03</internalNodes>
          <leafValues>
            1.6518102586269379e-01 -4.5810800790786743e-01</leafValues></_>
        <_>
          <internalNodes>
            0 -1 162 5.5237645283341408e-03</internalNodes>
          <leafValues>
            -1.4691327512264252e-01 4.7922050952911377e-01</leafValues></_>
        <_>
          <internalNodes>
            0 -1 266 -1.9086100161075592e-02</internalNodes>
          <leafValues>
            4.0647196769714355e-01 -1.8606117367744446e-01</leafValues></_>
        <_>
          <internalNodes>
            0 -1 385 9.6136052161455154e-03</internalNodes>
          <leafValues>
            1.0381741821765900e-01 -7.0613616704940796e-01</leafValues></_>
        <_>
          <internalNodes>
            0 -1 495 1.0492987930774689e-02</internalNodes>
          <leafValues>
            8.7661527097225189e-02 -6.4917737245559692e-01</leafValues></_>
        <_>
          <internalNodes>
            0 -1 488 -3.0894167721271515e-03</internalNodes>
          <leafValues>
            2.2373437881469727e-01 -2.6439851522445679e-01</leafValues></_>
        <_>
          <internalNodes>
            0 -1 437 8.0390498624183238e-05</internalNodes>
          <leafValues>
            2.3550209403038025e-01 -2.8303137421607971e-01</leafValues></_></weakClassifiers></_>
    <!-- stage 19 -->
    <_>
      <maxWeakCount>24</maxWeakCount>
      <stageThreshold>-8.9203363656997681e-01</stageThreshold>
      <weakClassifiers>
        <_>
          <internalNodes>
            0 -1 157 -7.8145209699869156e-03</internalNodes>
          <leafValues>
            -4.7933885455131531e-01 4.5748683810234070e-01</leafValues></_>
        <_>
          <internalNodes>
            0 -1 471 -5.7762401411309838e-05</internalNodes>
          <leafValues>
            -3.5223874449729919e-01 2.7301639318466187e-01</leafValues></_>
        <_>
          <internalNodes>
            0 -1 140 2.4862079881131649e-03</internalNodes>
          <leafValues>
            -2.4768213927745819e-01 3.2255408167839050e-01</leafValues></_>
        <_>
          <internalNodes>
            0 -1 150 -1.5428399201482534e-03</internalNodes>
          <leafValues>
            1.4633655548095703e-01 -5.1527863740921021e-01</leafValues></_>
        <_>
          <internalNodes>
            0 -1 318 -1.1064350474043749e-05</internalNodes>
          <leafValues>
            1.4836567640304565e-01 -4.6134421229362488e-01</leafValues></_>
        <_>
          <internalNodes>
            0 -1 161 -3.9105508476495743e-02</internalNodes>
          <leafValues>
            1.6236948966979980e-01 -4.5088842511177063e-01</leafValues></_>
        <_>
          <internalNodes>
            0 -1 225 1.5187624841928482e-02</internalNodes>
          <leafValues>
            -1.4218293130397797e-01 5.2416539192199707e-01</leafValues></_>
        <_>
          <internalNodes>
            0 -1 114 -3.5684243775904179e-03</internalNodes>
          <leafValues>
            2.4440206587314606e-01 -3.3197417855262756e-01</leafValues></_>
        <_>
          <internalNodes>
            0 -1 118 2.3569744080305099e-03</internalNodes>
          <leafValues>
            -1.6993114352226257e-01 4.3396836519241333e-01</leafValues></_>
        <_>
          <internalNodes>
            0 -1 197 -8.4728340152651072e-04</internalNodes>
          <leafValues>
            1.7363272607326508e-01 -4.3140006065368652e-01</leafValues></_>
        <_>
          <internalNodes>
            0 -1 348 -1.1566863577172626e-05</internalNodes>
          <leafValues>
            2.4273425340652466e-01 -3.2141250371932983e-01</leafValues></_>
        <_>
          <internalNodes>
            0 -1 452 2.7325404807925224e-02</internalNodes>
          <leafValues>
            -1.3143457472324371e-01 5.4039549827575684e-01</leafValues></_>
        <_>
          <internalNodes>
            0 -1 425 2.8311600544839166e-05</internalNodes>
          <leafValues>
            2.4158903956413269e-01 -3.0413991212844849e-01</leafValues></_>
        <_>
          <internalNodes>
            0 -1 217 2.2925160825252533e-02</internalNodes>
          <leafValues>
            -4.5484310388565063e-01 1.6907829046249390e-01</leafValues></_>
        <_>
          <internalNodes>
            0 -1 139 -6.8373754620552063e-03</internalNodes>
          <leafValues>
            -4.3699678778648376e-01 1.6076651215553284e-01</leafValues></_>
        <_>
          <internalNodes>
            0 -1 10 -5.2201189100742340e-03</internalNodes>
          <leafValues>
            -6.3067114353179932e-01 1.0576528310775757e-01</leafValues></_>
        <_>
          <internalNodes>
            0 -1 466 -2.2702600806951523e-02</internalNodes>
          <leafValues>
            3.6879882216453552e-01 -2.0546972751617432e-01</leafValues></_>
        <_>
          <internalNodes>
            0 -1 351 2.8058228053851053e-05</internalNodes>
          <leafValues>
            1.7165492475032806e-01 -4.3310794234275818e-01</leafValues></_>
        <_>
          <internalNodes>
            0 -1 16 1.7598390579223633e-02</internalNodes>
          <leafValues>
            9.8308995366096497e-02 -6.7385375499725342e-01</leafValues></_>
        <_>
          <internalNodes>
            0 -1 418 -1.2225119397044182e-02</internalNodes>
          <leafValues>
            6.0834026336669922e-01 -1.1820075660943985e-01</leafValues></_>
        <_>
          <internalNodes>
            0 -1 75 1.1462118476629257e-02</internalNodes>
          <leafValues>
            -1.9659413397312164e-01 3.4082165360450745e-01</leafValues></_>
        <_>
          <internalNodes>
            0 -1 153 -7.2482973337173462e-02</internalNodes>
          <leafValues>
            2.3934859037399292e-01 -2.8620931506156921e-01</leafValues></_>
        <_>
          <internalNodes>
            0 -1 3 -4.7474242746829987e-03</internalNodes>
          <leafValues>
            -5.7020682096481323e-01 1.1495219171047211e-01</leafValues></_>
        <_>
          <internalNodes>
            0 -1 343 -2.0495993085205555e-03</internalNodes>
          <leafValues>
            1.5966627001762390e-01 -4.1455662250518799e-01</leafValues></_></weakClassifiers></_>
    <!-- stage 20 -->
    <_>
      <maxWeakCount>18</maxWeakCount>
      <stageThreshold>-7.7368330955505371e-01</stageThreshold>
      <weakClassifiers>
        <_>
          <internalNodes>
            0 -1 315 6.8085629027336836e-04</internalNodes>
          <leafValues>
            5.2345681190490723e-01 -3.6595743894577026e-01</leafValues></_>
        <_>
          <internalNodes>
            0 -1 12 2.2385388147085905e-03</internalNodes>
          <leafValues>
            -3.6870211362838745e-01 3.2968851923942566e-01</leafValues></_>
        <_>
          <internalNodes>
            0 -1 85 -2.9006712138652802e-02</internalNodes>
          <leafValues>
            6.1919414997100830e-01 -1.6145470738410950e-01</leafValues></_>
        <_>
          <internalNodes>
            0 -1 113 1.4475136995315552e-02</internalNodes>
          <leafValues>
            -1.9760048389434814e-01 4.0097224712371826e-01</leafValues></_>
        <_>
          <internalNodes>
            0 -1 164 -3.3404608257114887e-03</internalNodes>
          <leafValues>
            5.6810528039932251e-01 -1.5608298778533936e-01</leafValues></_>
        <_>
          <internalNodes>
            0 -1 145 -1.4487385051324964e-03</internalNodes>
          <leafValues>
            1.9230191409587860e-01 -4.4920957088470459e-01</leafValues></_>
        <_>
          <internalNodes>
            0 -1 224 -1.4412559568881989e-02</internalNodes>
          <leafValues>
            1.5197886526584625e-01 -4.8484858870506287e-01</leafValues></_>
        <_>
          <internalNodes>
            0 -1 349 4.0078815072774887e-04</internalNodes>
          <leafValues>
            1.5275977551937103e-01 -4.9833038449287415e-01</leafValues></_>
        <_>
          <internalNodes>
            0 -1 463 -7.5420027133077383e-04</internalNodes>
          <leafValues>
            2.4252308905124664e-01 -3.5524672269821167e-01</leafValues></_>
        <_>
          <internalNodes>
            0 -1 265 -1.1223011824768037e-04</internalNodes>
          <leafValues>
            2.7471444010734558e-01 -3.0253314971923828e-01</leafValues></_>
        <_>
          <internalNodes>
            0 -1 261 4.8847636207938194e-03</internalNodes>
          <leafValues>
            8.4398984909057617e-02 -8.9909982681274414e-01</leafValues></_>
        <_>
          <internalNodes>
            0 -1 98 2.0889481529593468e-03</internalNodes>
          <leafValues>
            -3.6424633860588074e-01 2.1771687269210815e-01</leafValues></_>
        <_>
          <internalNodes>
            0 -1 415 1.2939816224388778e-04</internalNodes>
          <leafValues>
            1.2998345494270325e-01 -5.7948923110961914e-01</leafValues></_>
        <_>
          <internalNodes>
            0 -1 430 -2.8872550465166569e-03</internalNodes>
          <leafValues>
            4.8759424686431885e-01 -1.6404230892658234e-01</leafValues></_>
        <_>
          <internalNodes>
            0 -1 149 2.2578751668334007e-03</internalNodes>
          <leafValues>
            1.7058037221431732e-01 -5.4661661386489868e-01</leafValues></_>
        <_>
          <internalNodes>
            0 -1 60 9.5856310799717903e-03</internalNodes>
          <leafValues>
            -1.3618795573711395e-01 6.0948431491851807e-01</leafValues></_>
        <_>
          <internalNodes>
            0 -1 146 4.2588450014591217e-03</internalNodes>
          <leafValues>
            -1.4746353030204773e-01 4.9860143661499023e-01</leafValues></_>
        <_>
          <internalNodes>
            0 -1 193 1.4559276401996613e-02</internalNodes>
          <leafValues>
            -1.1018885672092438e-01 7.6747047901153564e-01</leafValues></_></weakClassifiers></_>
    <!-- stage 21 -->
    <_>
      <maxWeakCount>19</maxWeakCount>
      <stageThreshold>-7.5915074348449707e-01</stageThreshold>
      <weakClassifiers>
        <_>
          <internalNodes>
            0 -1 414 7.0678448537364602e-04</internalNodes>
          <leafValues>
            -2.3292469978332520e-01 5.2941179275512695e-01</leafValues></_>
        <_>
          <internalNodes>
            0 -1 427 3.3391384931746870e-05</internalNodes>
          <leafValues>
            3.6315000057220459e-01 -2.4572826921939850e-01</leafValues></_>
        <_>
          <internalNodes>
            0 -1 474 -3.7990899290889502e-03</internalNodes>
          <leafValues>
            3.7682220339775085e-01 -2.8587794303894043e-01</leafValues></_>
        <_>
          <internalNodes>
            0 -1 279 -1.1086838640039787e-05</internalNodes>
          <leafValues>
            1.9638822972774506e-01 -4.5595514774322510e-01</leafValues></_>
        <_>
          <internalNodes>
            0 -1 120 -5.7357396930456161e-02</internalNodes>
          <leafValues>
            5.5029225349426270e-01 -2.0827224850654602e-01</leafValues></_>
        <_>
          <internalNodes>
            0 -1 326 6.7418003454804420e-03</internalNodes>
          <leafValues>
            -1.6927236318588257e-01 5.4514515399932861e-01</leafValues></_>
        <_>
          <internalNodes>
            0 -1 429 -4.4614514335989952e-03</internalNodes>
          <leafValues>
            5.7776069641113281e-01 -1.6663281619548798e-01</leafValues></_>
        <_>
          <internalNodes>
            0 -1 189 -5.3546344861388206e-04</internalNodes>
          <leafValues>
            2.4992242455482483e-01 -3.2260242104530334e-01</leafValues></_>
        <_>
          <internalNodes>
            0 -1 77 3.0812110751867294e-02</internalNodes>
          <leafValues>
            -2.8151738643646240e-01 2.9943785071372986e-01</leafValues></_>
        <_>
          <internalNodes>
            0 -1 301 4.6382769942283630e-03</internalNodes>
          <leafValues>
            -2.0499522984027863e-01 4.4392028450965881e-01</leafValues></_>
        <_>
          <internalNodes>
            0 -1 295 1.7636964912526309e-04</internalNodes>
          <leafValues>
            1.2850116193294525e-01 -6.4183586835861206e-01</leafValues></_>
        <_>
          <internalNodes>
            0 -1 101 1.6768105328083038e-02</internalNodes>
          <leafValues>
            -1.6794423758983612e-01 5.2100652456283569e-01</leafValues></_>
        <_>
          <internalNodes>
            0 -1 494 -2.7790540829300880e-02</internalNodes>
          <leafValues>
            -8.3153688907623291e-01 8.9420892298221588e-02</leafValues></_>
        <_>
          <internalNodes>
            0 -1 83 6.0370512306690216e-02</internalNodes>
          <leafValues>
            -1.0221061110496521e-01 8.3307170867919922e-01</leafValues></_>
        <_>
          <internalNodes>
            0 -1 169 -1.2837018817663193e-02</internalNodes>
          <leafValues>
            5.1405507326126099e-01 -1.3239189982414246e-01</leafValues></_>
        <_>
          <internalNodes>
            0 -1 41 -4.4199969852343202e-04</internalNodes>
          <leafValues>
            2.5390243530273438e-01 -3.1043371558189392e-01</leafValues></_>
        <_>
          <internalNodes>
            0 -1 458 1.8627332523465157e-02</internalNodes>
          <leafValues>
            -1.3602724671363831e-01 6.0250747203826904e-01</leafValues></_>
        <_>
          <internalNodes>
            0 -1 455 -2.5023883208632469e-03</internalNodes>
          <leafValues>
            3.1709125638008118e-01 -2.4074622988700867e-01</leafValues></_>
        <_>
          <internalNodes>
            0 -1 5 -7.2610005736351013e-03</internalNodes>
          <leafValues>
            -5.3226852416992188e-01 1.4554074406623840e-01</leafValues></_></weakClassifiers></_>
    <!-- stage 22 -->
    <_>
      <maxWeakCount>22</maxWeakCount>
      <stageThreshold>-7.5735163688659668e-01</stageThreshold>
      <weakClassifiers>
        <_>
          <internalNodes>
            0 -1 8 -3.2049423456192017e-01</internalNodes>
          <leafValues>
            -8.0571430921554565e-01 4.5541283488273621e-01</leafValues></_>
        <_>
          <internalNodes>
            0 -1 314 -3.4528371179476380e-04</internalNodes>
          <leafValues>
            3.6231946945190430e-01 -3.0517408251762390e-01</leafValues></_>
        <_>
          <internalNodes>
            0 -1 472 -6.3144412706606090e-05</internalNodes>
          <leafValues>
            -3.7412428855895996e-01 2.6155856251716614e-01</leafValues></_>
        <_>
          <internalNodes>
            0 -1 472 3.4282966225873679e-05</internalNodes>
          <leafValues>
            1.8468250334262848e-01 -4.9164789915084839e-01</leafValues></_>
        <_>
          <internalNodes>
            0 -1 467 8.1755183637142181e-03</internalNodes>
          <leafValues>
            -1.4288957417011261e-01 5.7213765382766724e-01</leafValues></_>
        <_>
          <internalNodes>
            0 -1 391 -2.0234088879078627e-03</internalNodes>
          <leafValues>
            5.1446050405502319e-01 -1.9448937475681305e-01</leafValues></_>
        <_>
          <internalNodes>
            0 -1 182 -1.3314025476574898e-02</internalNodes>
          <leafValues>
            1.6508904099464417e-01 -6.5308725833892822e-01</leafValues></_>
        <_>
          <internalNodes>
            0 -1 219 -5.7627190835773945e-04</internalNodes>
          <leafValues>
            -3.8409501314163208e-01 1.9360558688640594e-01</leafValues></_>
        <_>
          <internalNodes>
            0 -1 110 4.9489270895719528e-03</internalNodes>
          <leafValues>
            -1.5847550332546234e-01 4.8008409142494202e-01</leafValues></_>
        <_>
          <internalNodes>
            0 -1 202 -8.3225086564198136e-04</internalNodes>
          <leafValues>
            1.5022292733192444e-01 -5.5800133943557739e-01</leafValues></_>
        <_>
          <internalNodes>
            0 -1 226 4.9054101109504700e-02</internalNodes>
          <leafValues>
            -1.9280807673931122e-01 4.2891559004783630e-01</leafValues></_>
        <_>
          <internalNodes>
            0 -1 102 -2.1840238943696022e-02</internalNodes>
          <leafValues>
            3.7046030163764954e-01 -2.1811275184154510e-01</leafValues></_>
        <_>
          <internalNodes>
            0 -1 330 -8.5217859596014023e-03</internalNodes>
          <leafValues>
            5.0704079866409302e-01 -1.3727094233036041e-01</leafValues></_>
        <_>
          <internalNodes>
            0 -1 431 2.3848962038755417e-02</internalNodes>
          <leafValues>
            -1.6001610457897186e-01 4.7714975476264954e-01</leafValues></_>
        <_>
          <internalNodes>
            0 -1 337 2.0273902919143438e-04</internalNodes>
          <leafValues>
            1.8688257038593292e-01 -4.2644751071929932e-01</leafValues></_>
        <_>
          <internalNodes>
            0 -1 367 4.5204736292362213e-02</internalNodes>
          <leafValues>
            -1.1861962080001831e-01 6.8097257614135742e-01</leafValues></_>
        <_>
          <internalNodes>
            0 -1 176 -1.4781246136408299e-04</internalNodes>
          <leafValues>
            -1.9256940484046936e-01 3.5100218653678894e-01</leafValues></_>
        <_>
          <internalNodes>
            0 -1 280 -3.9602885954082012e-04</internalNodes>
          <leafValues>
            -5.8658915758132935e-01 1.2170345336198807e-01</leafValues></_>
        <_>
          <internalNodes>
            0 -1 288 -5.6396685540676117e-03</internalNodes>
          <leafValues>
            -6.4646410942077637e-01 1.1499197781085968e-01</leafValues></_>
        <_>
          <internalNodes>
            0 -1 408 -2.0016389898955822e-03</internalNodes>
          <leafValues>
            5.5738979578018188e-01 -1.5651223063468933e-01</leafValues></_>
        <_>
          <internalNodes>
            0 -1 258 -2.1995445713400841e-03</internalNodes>
          <leafValues>
            4.9518275260925293e-01 -1.5095897018909454e-01</leafValues></_>
        <_>
          <internalNodes>
            0 -1 396 1.7450470477342606e-04</internalNodes>
          <leafValues>
            2.3756608366966248e-01 -3.7606030702590942e-01</leafValues></_></weakClassifiers></_>
    <!-- stage 23 -->
    <_>
      <maxWeakCount>21</maxWeakCount>
      <stageThreshold>-8.8754022121429443e-01</stageThreshold>
      <weakClassifiers>
        <_>
          <internalNodes>
            0 -1 71 -3.5093151032924652e-02</internalNodes>
          <leafValues>
            4.7029891610145569e-01 -5.5642020702362061e-01</leafValues></_>
        <_>
          <internalNodes>
            0 -1 470 3.9095579268177971e-05</internalNodes>
          <leafValues>
            3.4459742903709412e-01 -3.0871146917343140e-01</leafValues></_>
        <_>
          <internalNodes>
            0 -1 483 -6.1491533415392041e-05</internalNodes>
          <leafValues>
            -4.1122940182685852e-01 2.5010633468627930e-01</leafValues></_>
        <_>
          <internalNodes>
            0 -1 53 1.9929269328713417e-03</internalNodes>
          <leafValues>
            -2.6505503058433533e-01 3.1467387080192566e-01</leafValues></_>
        <_>
          <internalNodes>
            0 -1 20 -4.5945313759148121e-03</internalNodes>
          <leafValues>
            -7.4153608083724976e-01 1.1812563985586166e-01</leafValues></_>
        <_>
          <internalNodes>
            0 -1 115 -1.7861206084489822e-02</internalNodes>
          <leafValues>
            -6.8783235549926758e-01 9.6849828958511353e-02</leafValues></_>
        <_>
          <internalNodes>
            0 -1 174 7.1684764698147774e-03</internalNodes>
          <leafValues>
            1.1837285757064819e-01 -6.4290577173233032e-01</leafValues></_>
        <_>
          <internalNodes>
            0 -1 373 2.9016995540587232e-05</internalNodes>
          <leafValues>
            2.3759582638740540e-01 -3.5629755258560181e-01</leafValues></_>
        <_>
          <internalNodes>
            0 -1 260 -4.1538842197041959e-05</internalNodes>
          <leafValues>
            1.7955832183361053e-01 -4.5193779468536377e-01</leafValues></_>
        <_>
          <internalNodes>
            0 -1 175 1.2869527563452721e-03</internalNodes>
          <leafValues>
            1.4528493583202362e-01 -5.2852201461791992e-01</leafValues></_>
        <_>
          <internalNodes>
            0 -1 322 -9.3714974354952574e-05</internalNodes>
          <leafValues>
            1.8964190781116486e-01 -3.9234980940818787e-01</leafValues></_>
        <_>
          <internalNodes>
            0 -1 137 -1.0147718712687492e-02</internalNodes>
          <leafValues>
            3.3226525783538818e-01 -2.3669332265853882e-01</leafValues></_>
        <_>
          <internalNodes>
            0 -1 196 9.0429037809371948e-02</internalNodes>
          <leafValues>
            -7.4311412870883942e-02 7.8300732374191284e-01</leafValues></_>
        <_>
          <internalNodes>
            0 -1 94 9.6193421632051468e-03</internalNodes>
          <leafValues>
            -2.9408240318298340e-01 2.6518386602401733e-01</leafValues></_>
        <_>
          <internalNodes>
            0 -1 218 -3.3213649876415730e-03</internalNodes>
          <leafValues>
            1.7686812579631805e-01 -3.9185950160026550e-01</leafValues></_>
        <_>
          <internalNodes>
            0 -1 81 -3.4612604975700378e-01</internalNodes>
          <leafValues>
            -5.9870320558547974e-01 1.4432086050510406e-01</leafValues></_>
        <_>
          <internalNodes>
            0 -1 460 -1.3665575534105301e-04</internalNodes>
          <leafValues>
            -3.2966378331184387e-01 2.2389024496078491e-01</leafValues></_>
        <_>
          <internalNodes>
            0 -1 476 3.6301222280599177e-05</internalNodes>
          <leafValues>
            1.9671344757080078e-01 -4.5291069149971008e-01</leafValues></_>
        <_>
          <internalNodes>
            0 -1 9 -5.6966137140989304e-02</internalNodes>
          <leafValues>
            1.4355482161045074e-01 -4.6661654114723206e-01</leafValues></_>
        <_>
          <internalNodes>
            0 -1 206 1.0512152221053839e-03</internalNodes>
          <leafValues>
            -1.3836409151554108e-01 5.3138691186904907e-01</leafValues></_>
        <_>
          <internalNodes>
            0 -1 376 -1.4803013764321804e-03</internalNodes>
          <leafValues>
            -6.8743097782135010e-01 1.1080156266689301e-01</leafValues></_></weakClassifiers></_>
    <!-- stage 24 -->
    <_>
      <maxWeakCount>21</maxWeakCount>
      <stageThreshold>-7.0667982101440430e-01</stageThreshold>
      <weakClassifiers>
        <_>
          <internalNodes>
            0 -1 338 -1.0772999303299002e-05</internalNodes>
          <leafValues>
            6.0347634553909302e-01 -1.0387158021330833e-02</leafValues></_>
        <_>
          <internalNodes>
            0 -1 227 -4.6678567305207253e-03</internalNodes>
          <leafValues>
            3.9071673154830933e-01 -2.3847888410091400e-01</leafValues></_>
        <_>
          <internalNodes>
            0 -1 451 3.3683027140796185e-03</internalNodes>
          <leafValues>
            -2.6568400859832764e-01 3.1103190779685974e-01</leafValues></_>
        <_>
          <internalNodes>
            0 -1 0 6.9252448156476021e-03</internalNodes>
          <leafValues>
            1.2880095839500427e-01 -7.4146538972854614e-01</leafValues></_>
        <_>
          <internalNodes>
            0 -1 222 -1.1842004023492336e-03</internalNodes>
          <leafValues>
            -5.9791129827499390e-01 1.0436795651912689e-01</leafValues></_>
        <_>
          <internalNodes>
            0 -1 205 -2.1855426020920277e-03</internalNodes>
          <leafValues>
            1.5184301137924194e-01 -4.4671893119812012e-01</leafValues></_>
        <_>
          <internalNodes>
            0 -1 59 2.1001994609832764e-02</internalNodes>
          <leafValues>
            -4.3149632215499878e-01 1.6345292329788208e-01</leafValues></_>
        <_>
          <internalNodes>
            0 -1 416 -1.6710351337678730e-04</internalNodes>
          <leafValues>
            -2.8337445855140686e-01 2.6436308026313782e-01</leafValues></_>
        <_>
          <internalNodes>
            0 -1 476 6.0958074755035341e-05</internalNodes>
          <leafValues>
            1.4984610676765442e-01 -4.4406208395957947e-01</leafValues></_>
        <_>
          <internalNodes>
            0 -1 294 -4.1468182462267578e-04</internalNodes>
          <leafValues>
            1.8261261284351349e-01 -4.2272239923477173e-01</leafValues></_>
        <_>
          <internalNodes>
            0 -1 359 -2.8876904398202896e-02</internalNodes>
          <leafValues>
            8.0929046869277954e-01 -1.0153848677873611e-01</leafValues></_>
        <_>
          <internalNodes>
            0 -1 64 -1.4698446728289127e-02</internalNodes>
          <leafValues>
            6.0411524772644043e-01 -1.0074115544557571e-01</leafValues></_>
        <_>
          <internalNodes>
            0 -1 127 -6.9194655225146562e-05</internalNodes>
          <leafValues>
            -3.2832249999046326e-01 2.4118289351463318e-01</leafValues></_>
        <_>
          <internalNodes>
            0 -1 223 -4.2143635801039636e-04</internalNodes>
          <leafValues>
            1.9615170359611511e-01 -3.5132431983947754e-01</leafValues></_>
        <_>
          <internalNodes>
            0 -1 486 -6.0923416167497635e-03</internalNodes>
          <leafValues>
            2.9651194810867310e-01 -2.3845238983631134e-01</leafValues></_>
        <_>
          <internalNodes>
            0 -1 122 -2.9206098988652229e-03</internalNodes>
          <leafValues>
            1.7387838661670685e-01 -4.4440534710884094e-01</leafValues></_>
        <_>
          <internalNodes>
            0 -1 242 -2.8855707496404648e-02</internalNodes>
          <leafValues>
            9.1040229797363281e-01 -9.1326877474784851e-02</leafValues></_>
        <_>
          <internalNodes>
            0 -1 479 7.2564277797937393e-04</internalNodes>
          <leafValues>
            1.5760649740695953e-01 -5.4074728488922119e-01</leafValues></_>
        <_>
          <internalNodes>
            0 -1 212 3.4796923398971558e-02</internalNodes>
          <leafValues>
            -1.0420843958854675e-01 7.4486291408538818e-01</leafValues></_>
        <_>
          <internalNodes>
            0 -1 76 -4.6337358653545380e-03</internalNodes>
          <leafValues>
            2.6242882013320923e-01 -2.9858687520027161e-01</leafValues></_>
        <_>
          <internalNodes>
            0 -1 6 8.2003241404891014e-03</internalNodes>
          <leafValues>
            1.4946465194225311e-01 -5.0404304265975952e-01</leafValues></_></weakClassifiers></_>
    <!-- stage 25 -->
    <_>
      <maxWeakCount>22</maxWeakCount>
      <stageThreshold>-6.4488393068313599e-01</stageThreshold>
      <weakClassifiers>
        <_>
          <internalNodes>
            0 -1 2 2.2956542670726776e-03</internalNodes>
          <leafValues>
            4.1067763231694698e-03 5.6905502080917358e-01</leafValues></_>
        <_>
          <internalNodes>
            0 -1 347 1.1148070916533470e-04</internalNodes>
          <leafValues>
            1.8904955685138702e-01 -4.7963121533393860e-01</leafValues></_>
        <_>
          <internalNodes>
            0 -1 107 2.5327769108116627e-03</internalNodes>
          <leafValues>
            -1.6264280676841736e-01 4.7020867466926575e-01</leafValues></_>
        <_>
          <internalNodes>
            0 -1 364 5.2525240927934647e-02</internalNodes>
          <leafValues>
            -1.9532087445259094e-01 3.8194322586059570e-01</leafValues></_>
        <_>
          <internalNodes>
            0 -1 199 -9.8941288888454437e-03</internalNodes>
          <leafValues>
            2.9927322268486023e-01 -2.5138184428215027e-01</leafValues></_>
        <_>
          <internalNodes>
            0 -1 421 3.2700081646908075e-05</internalNodes>
          <leafValues>
            2.9644420742988586e-01 -3.0057972669601440e-01</leafValues></_>
        <_>
          <internalNodes>
            0 -1 407 5.9733334928750992e-03</internalNodes>
          <leafValues>
            -1.5391004085540771e-01 6.0195916891098022e-01</leafValues></_>
        <_>
          <internalNodes>
            0 -1 253 1.2565382348839194e-04</internalNodes>
          <leafValues>
            1.5676276385784149e-01 -5.0166958570480347e-01</leafValues></_>
        <_>
          <internalNodes>
            0 -1 409 2.6559568941593170e-03</internalNodes>
          <leafValues>
            -1.3300171494483948e-01 6.1423081159591675e-01</leafValues></_>
        <_>
          <internalNodes>
            0 -1 404 -1.0919228770944756e-05</internalNodes>
          <leafValues>
            2.3235394060611725e-01 -3.3384341001510620e-01</leafValues></_>
        <_>
          <internalNodes>
            0 -1 438 -2.2091536084190011e-04</internalNodes>
          <leafValues>
            -3.0236133933067322e-01 2.6710462570190430e-01</leafValues></_>
        <_>
          <internalNodes>
            0 -1 105 -1.1071433618781157e-05</internalNodes>
          <leafValues>
            2.4902263283729553e-01 -3.0899119377136230e-01</leafValues></_>
        <_>
          <internalNodes>
            0 -1 7 -2.1139776706695557e-01</internalNodes>
          <leafValues>
            -5.3409492969512939e-01 1.3524399697780609e-01</leafValues></_>
        <_>
          <internalNodes>
            0 -1 11 1.2725435663014650e-03</internalNodes>
          <leafValues>
            1.2135327607393265e-01 -5.9528219699859619e-01</leafValues></_>
        <_>
          <internalNodes>
            0 -1 129 3.9407167583703995e-02</internalNodes>
          <leafValues>
            -1.0788199305534363e-01 6.9546681642532349e-01</leafValues></_>
        <_>
          <internalNodes>
            0 -1 438 5.5831864301580936e-05</internalNodes>
          <leafValues>
            1.6355308890342712e-01 -4.8885020613670349e-01</leafValues></_>
        <_>
          <internalNodes>
            0 -1 428 1.1542163701960817e-04</internalNodes>
          <leafValues>
            2.5811371207237244e-01 -2.7151513099670410e-01</leafValues></_>
        <_>
          <internalNodes>
            0 -1 446 -2.6074345223605633e-03</internalNodes>
          <leafValues>
            5.4342317581176758e-01 -1.3815200328826904e-01</leafValues></_>
        <_>
          <internalNodes>
            0 -1 158 2.3782341741025448e-03</internalNodes>
          <leafValues>
            -1.1344249546527863e-01 6.0054051876068115e-01</leafValues></_>
        <_>
          <internalNodes>
            0 -1 138 1.1836530175060034e-03</internalNodes>
          <leafValues>
            1.8773145973682404e-01 -4.0457221865653992e-01</leafValues></_>
        <_>
          <internalNodes>
            0 -1 285 -8.0900629982352257e-03</internalNodes>
          <leafValues>
            -7.3213857412338257e-01 9.6266120672225952e-02</leafValues></_>
        <_>
          <internalNodes>
            0 -1 42 -9.0755132259801030e-04</internalNodes>
          <leafValues>
            1.5082548558712006e-01 -4.2179960012435913e-01</leafValues></_></weakClassifiers></_>
    <!-- stage 26 -->
    <_>
      <maxWeakCount>24</maxWeakCount>
      <stageThreshold>-8.8934534788131714e-01</stageThreshold>
      <weakClassifiers>
        <_>
          <internalNodes>
            0 -1 372 -3.2026856206357479e-04</internalNodes>
          <leafValues>
            -1.8669131398200989e-01 5.0911402702331543e-01</leafValues></_>
        <_>
          <internalNodes>
            0 -1 482 -6.1682374507654458e-05</internalNodes>
          <leafValues>
            -3.7071964144706726e-01 2.2223921120166779e-01</leafValues></_>
        <_>
          <internalNodes>
            0 -1 397 3.4111784771084785e-04</internalNodes>
          <leafValues>
            1.3646844029426575e-01 -4.8945423960685730e-01</leafValues></_>
        <_>
          <internalNodes>
            0 -1 478 -2.5367410853505135e-03</internalNodes>
          <leafValues>
            2.4953156709671021e-01 -2.6752385497093201e-01</leafValues></_>
        <_>
          <internalNodes>
            0 -1 313 6.6923291888087988e-04</internalNodes>
          <leafValues>
            1.1186619102954865e-01 -5.6833446025848389e-01</leafValues></_>
        <_>
          <internalNodes>
            0 -1 100 5.9721153229475021e-03</internalNodes>
          <leafValues>
            -1.7751649022102356e-01 4.1418528556823730e-01</leafValues></_>
        <_>
          <internalNodes>
            0 -1 133 -4.8126508481800556e-03</internalNodes>
          <leafValues>
            5.8378165960311890e-01 -1.2554436922073364e-01</leafValues></_>
        <_>
          <internalNodes>
            0 -1 180 2.1073920652270317e-03</internalNodes>
          <leafValues>
            -2.2738176584243774e-01 3.0099463462829590e-01</leafValues></_>
        <_>
          <internalNodes>
            0 -1 358 -1.0959031060338020e-02</internalNodes>
          <leafValues>
            5.1303434371948242e-01 -1.3255499303340912e-01</leafValues></_>
        <_>
          <internalNodes>
            0 -1 273 -2.3317144950851798e-04</internalNodes>
          <leafValues>
            1.9508263468742371e-01 -4.0323880314826965e-01</leafValues></_>
        <_>
          <internalNodes>
            0 -1 439 -1.4308106619864702e-04</internalNodes>
          <leafValues>
            -2.3980599641799927e-01 2.9247432947158813e-01</leafValues></_>
        <_>
          <internalNodes>
            0 -1 432 -2.7497662231326103e-03</internalNodes>
          <leafValues>
            -6.2504404783248901e-01 1.0840272158384323e-01</leafValues></_>
        <_>
          <internalNodes>
            0 -1 481 -2.6700890157371759e-04</internalNodes>
          <leafValues>
            -4.5036569237709045e-01 1.3942401111125946e-01</leafValues></_>
        <_>
          <internalNodes>
            0 -1 84 -1.5493538975715637e-01</internalNodes>
          <leafValues>
            6.3424217700958252e-01 -1.1446323245763779e-01</leafValues></_>
        <_>
          <internalNodes>
            0 -1 449 -4.1827596724033356e-03</internalNodes>
          <leafValues>
            3.7315633893013000e-01 -1.7010469734668732e-01</leafValues></_>
        <_>
          <internalNodes>
            0 -1 393 2.5341054424643517e-04</internalNodes>
          <leafValues>
            2.2929514944553375e-01 -3.2894280552864075e-01</leafValues></_>
        <_>
          <internalNodes>
            0 -1 234 -9.5141818746924400e-03</internalNodes>
          <leafValues>
            2.5452280044555664e-01 -2.9334813356399536e-01</leafValues></_>
        <_>
          <internalNodes>
            0 -1 371 9.0826675295829773e-03</internalNodes>
          <leafValues>
            -4.1517320275306702e-01 1.7007616162300110e-01</leafValues></_>
        <_>
          <internalNodes>
            0 -1 160 -1.2276651978027076e-04</internalNodes>
          <leafValues>
            1.2902554869651794e-01 -5.0715178251266479e-01</leafValues></_>
        <_>
          <internalNodes>
            0 -1 166 9.2053704429417849e-04</internalNodes>
          <leafValues>
            1.2536226212978363e-01 -4.4880476593971252e-01</leafValues></_>
        <_>
          <internalNodes>
            0 -1 245 -4.9973395653069019e-03</internalNodes>
          <leafValues>
            5.3086560964584351e-01 -1.3085857033729553e-01</leafValues></_>
        <_>
          <internalNodes>
            0 -1 38 7.8514125198125839e-03</internalNodes>
          <leafValues>
            8.1188604235649109e-02 -9.0374761819839478e-01</leafValues></_>
        <_>
          <internalNodes>
            0 -1 269 6.7139997554477304e-05</internalNodes>
          <leafValues>
            1.3563857972621918e-01 -4.0859389305114746e-01</leafValues></_>
        <_>
          <internalNodes>
            0 -1 148 6.7173771094530821e-04</internalNodes>
          <leafValues>
            -2.5020614266395569e-01 2.8376215696334839e-01</leafValues></_></weakClassifiers></_>
    <!-- stage 27 -->
    <_>
      <maxWeakCount>25</maxWeakCount>
      <stageThreshold>-8.4641104936599731e-01</stageThreshold>
      <weakClassifiers>
        <_>
          <internalNodes>
            0 -1 99 -5.4907561279833317e-03</internalNodes>
          <leafValues>
            -3.9869281649589539e-01 4.7108712792396545e-01</leafValues></_>
        <_>
          <internalNodes>
            0 -1 17 1.7436395864933729e-03</internalNodes>
          <leafValues>
            -3.3184480667114258e-01 2.5047370791435242e-01</leafValues></_>
        <_>
          <internalNodes>
            0 -1 366 7.6380977407097816e-03</internalNodes>
          <leafValues>
            -4.5440492033958435e-01 1.7776572704315186e-01</leafValues></_>
        <_>
          <internalNodes>
            0 -1 405 3.1885880162008107e-05</internalNodes>
          <leafValues>
            2.1826884150505066e-01 -3.1873825192451477e-01</leafValues></_>
        <_>
          <internalNodes>
            0 -1 447 -2.3132856003940105e-03</internalNodes>
          <leafValues>
            5.2759385108947754e-01 -1.5688063204288483e-01</leafValues></_>
        <_>
          <internalNodes>
            0 -1 263 -6.1794603243470192e-04</internalNodes>
          <leafValues>
            1.9570285081863403e-01 -3.4594762325286865e-01</leafValues></_>
        <_>
          <internalNodes>
            0 -1 403 5.6799108278937638e-05</internalNodes>
          <leafValues>
            1.5403363108634949e-01 -4.9945718050003052e-01</leafValues></_>
        <_>
          <internalNodes>
            0 -1 47 -1.1897352524101734e-03</internalNodes>
          <leafValues>
            2.5592431426048279e-01 -3.5380205512046814e-01</leafValues></_>
        <_>
          <internalNodes>
            0 -1 204 -2.5054849684238434e-03</internalNodes>
          <leafValues>
            1.5053778886795044e-01 -3.9754983782768250e-01</leafValues></_>
        <_>
          <internalNodes>
            0 -1 306 5.9145451523363590e-03</internalNodes>
          <leafValues>
            -1.8905732035636902e-01 4.1477394104003906e-01</leafValues></_>
        <_>
          <internalNodes>
            0 -1 417 -2.1825198200531304e-04</internalNodes>
          <leafValues>
            -3.2693019509315491e-01 2.5972294807434082e-01</leafValues></_>
        <_>
          <internalNodes>
            0 -1 342 2.5323531008325517e-04</internalNodes>
          <leafValues>
            1.4456254243850708e-01 -4.6157947182655334e-01</leafValues></_>
        <_>
          <internalNodes>
            0 -1 433 -2.4948874488472939e-03</internalNodes>
          <leafValues>
            2.6549035310745239e-01 -2.5115188956260681e-01</leafValues></_>
        <_>
          <internalNodes>
            0 -1 191 -1.3854860328137875e-02</internalNodes>
          <leafValues>
            -7.6031297445297241e-01 7.9847209155559540e-02</leafValues></_>
        <_>
          <internalNodes>
            0 -1 63 -4.3165585957467556e-03</internalNodes>
          <leafValues>
            4.6092155575752258e-01 -1.4964595437049866e-01</leafValues></_>
        <_>
          <internalNodes>
            0 -1 159 5.9017352759838104e-03</internalNodes>
          <leafValues>
            -1.6335821151733398e-01 4.0590015053749084e-01</leafValues></_>
        <_>
          <internalNodes>
            0 -1 192 -1.1674028064589947e-04</internalNodes>
          <leafValues>
