<?xml version="1.0"?>
<opencv_storage>
<stage11>
  <maxWeakCount>15</maxWeakCount>
  <stageThreshold>-1.1902014017105103e+00</stageThreshold>
  <weakClassifiers>
    <_>
      <internalNodes>
        0 -1 161509 -1.6991589218378067e-03</internalNodes>
      <leafValues>
        3.9792898297309875e-01 -3.1818181276321411e-01</leafValues></_>
    <_>
      <internalNodes>
        0 -1 47915 1.3299768790602684e-02</internalNodes>
      <leafValues>
        -2.5366866588592529e-01 4.3666946887969971e-01</leafValues></_>
    <_>
      <internalNodes>
        0 -1 119340 -1.1943276149395388e-05</internalNodes>
      <leafValues>
        1.9343140721321106e-01 -5.9248119592666626e-01</leafValues></_>
    <_>
      <internalNodes>
        0 -1 55148 -1.5283287502825260e-02</internalNodes>
      <leafValues>
        5.2761685848236084e-01 -1.9288317859172821e-01</leafValues></_>
    <_>
      <internalNodes>
        0 -1 151176 1.3971574604511261e-02</internalNodes>
      <leafValues>
        -1.9317908585071564e-01 5.4104882478713989e-01</leafValues></_>
    <_>
      <internalNodes>
        0 -1 154525 2.3093287018127739e-04</internalNodes>
      <leafValues>
        2.1328794956207275e-01 -4.5090669393539429e-01</leafValues></_>
    <_>
      <internalNodes>
        0 -1 142619 -1.1001729944837280e-05</internalNodes>
      <leafValues>
        2.8723230957984924e-01 -3.4709739685058594e-01</leafValues></_>
    <_>
      <internalNodes>
        0 -1 94490 1.0386149398982525e-02</internalNodes>
      <leafValues>
        -2.0850951969623566e-01 4.4025510549545288e-01</leafValues></_>
    <_>
      <internalNodes>
        0 -1 150480 -1.2017128756269813e-04</internalNodes>
      <leafValues>
        -3.1573078036308289e-01 2.9733788967132568e-01</leafValues></_>
    <_>
      <internalNodes>
        0 -1 56626 -1.9939700141549110e-03</internalNodes>
      <leafValues>
        2.6020228862762451e-01 -5.0546336174011230e-01</leafValues></_>
    <_>
      <internalNodes>
        0 -1 98974 5.1399134099483490e-03</internalNodes>
      <leafValues>
        1.0687916725873947e-01 -6.0660350322723389e-01</leafValues></_>
    <_>
      <internalNodes>
        0 -1 88360 -6.6901538521051407e-03</internalNodes>
      <leafValues>
        2.0553909242153168e-01 -4.5590591430664062e-01</leafValues></_>
    <_>
      <internalNodes>
        0 -1 149483 2.4747353047132492e-02</internalNodes>
      <leafValues>
        -2.3131190240383148e-01 4.4273841381072998e-01</leafValues></_>
    <_>
      <internalNodes>
        0 -1 132944 3.0340932426042855e-05</internalNodes>
      <leafValues>
        2.5464075803756714e-01 -4.8000577092170715e-01</leafValues></_>
    <_>
      <internalNodes>
        0 -1 154529 3.3608375815674663e-05</internalNodes>
      <leafValues>
        3.1529647111892700e-01 -2.9863488674163818e-01</leafValues></_></weakClassifiers></stage11>
</opencv_storage>
