<?xml version="1.0"?>
<opencv_storage>
<stage5>
  <maxWeakCount>13</maxWeakCount>
  <stageThreshold>-1.0430560111999512e+00</stageThreshold>
  <weakClassifiers>
    <_>
      <internalNodes>
        0 -1 32232 -2.2704651951789856e-01</internalNodes>
      <leafValues>
        7.1849429607391357e-01 -2.0337393879890442e-01</leafValues></_>
    <_>
      <internalNodes>
        0 -1 132122 3.5096125793643296e-04</internalNodes>
      <leafValues>
        4.3296164274215698e-01 -5.0533968210220337e-01</leafValues></_>
    <_>
      <internalNodes>
        0 -1 8876 1.7364721745252609e-02</internalNodes>
      <leafValues>
        -2.9916676878929138e-01 5.7666724920272827e-01</leafValues></_>
    <_>
      <internalNodes>
        0 -1 82588 -2.7071243152022362e-02</internalNodes>
      <leafValues>
        2.9713058471679688e-01 -6.3536584377288818e-01</leafValues></_>
    <_>
      <internalNodes>
        0 -1 112212 -1.2122624866606202e-05</internalNodes>
      <leafValues>
        1.7828185856342316e-01 -6.0399609804153442e-01</leafValues></_>
    <_>
      <internalNodes>
        0 -1 149778 4.2904704809188843e-02</internalNodes>
      <leafValues>
        -2.2330380976200104e-01 6.6539227962493896e-01</leafValues></_>
    <_>
      <internalNodes>
        0 -1 69330 -2.2672922350466251e-03</internalNodes>
      <leafValues>
        2.4831664562225342e-01 -4.5333871245384216e-01</leafValues></_>
    <_>
      <internalNodes>
        0 -1 5648 -2.7349385619163513e-01</internalNodes>
      <leafValues>
        -8.2916963100433350e-01 1.0291181504726410e-01</leafValues></_>
    <_>
      <internalNodes>
        0 -1 120387 1.5771144535392523e-04</internalNodes>
      <leafValues>
        1.5720508992671967e-01 -6.4934527873992920e-01</leafValues></_>
    <_>
      <internalNodes>
        0 -1 138461 -1.0292837032466196e-05</internalNodes>
      <leafValues>
        2.8573414683341980e-01 -3.7785470485687256e-01</leafValues></_>
    <_>
      <internalNodes>
        0 -1 158589 8.9039822341874242e-04</internalNodes>
      <leafValues>
        1.5442438423633575e-01 -6.7436045408248901e-01</leafValues></_>
    <_>
      <internalNodes>
        0 -1 87838 8.3529967814683914e-03</internalNodes>
      <leafValues>
        -6.0504841804504395e-01 1.6305643320083618e-01</leafValues></_>
    <_>
      <internalNodes>
        0 -1 119301 -5.3276040125638247e-04</internalNodes>
      <leafValues>
        -6.4276146888732910e-01 1.3930161297321320e-01</leafValues></_></weakClassifiers></stage5>
</opencv_storage>
