<?xml version="1.0"?>
<opencv_storage>
<stage6>
  <maxWeakCount>14</maxWeakCount>
  <stageThreshold>-1.0115946531295776e+00</stageThreshold>
  <weakClassifiers>
    <_>
      <internalNodes>
        0 -1 31516 -1.8135467171669006e-01</internalNodes>
      <leafValues>
        6.0888886451721191e-01 -4.1538462042808533e-01</leafValues></_>
    <_>
      <internalNodes>
        0 -1 126104 -1.1025376807083376e-05</internalNodes>
      <leafValues>
        3.5428199172019958e-01 -5.1689910888671875e-01</leafValues></_>
    <_>
      <internalNodes>
        0 -1 2266 6.8558431230485439e-03</internalNodes>
      <leafValues>
        -4.4976854324340820e-01 3.1797116994857788e-01</leafValues></_>
    <_>
      <internalNodes>
        0 -1 52705 -6.2765419483184814e-02</internalNodes>
      <leafValues>
        2.4955339729785919e-01 -5.1122838258743286e-01</leafValues></_>
    <_>
      <internalNodes>
        0 -1 154287 4.8768473789095879e-03</internalNodes>
      <leafValues>
        -2.8889298439025879e-01 4.5649480819702148e-01</leafValues></_>
    <_>
      <internalNodes>
        0 -1 9631 1.8053142353892326e-02</internalNodes>
      <leafValues>
        -4.0709993243217468e-01 2.9626339673995972e-01</leafValues></_>
    <_>
      <internalNodes>
        0 -1 22717 -5.6487759575247765e-03</internalNodes>
      <leafValues>
        5.8109277486801147e-01 -2.2411388158798218e-01</leafValues></_>
    <_>
      <internalNodes>
        0 -1 112122 3.0283718369901180e-03</internalNodes>
      <leafValues>
        1.7492701113224030e-01 -7.9342371225357056e-01</leafValues></_>
    <_>
      <internalNodes>
        0 -1 46532 -1.3724295968131628e-05</internalNodes>
      <leafValues>
        1.8699312210083008e-01 -5.3428918123245239e-01</leafValues></_>
    <_>
      <internalNodes>
        0 -1 119001 3.4037596196867526e-04</internalNodes>
      <leafValues>
        1.5578743815422058e-01 -6.8887728452682495e-01</leafValues></_>
    <_>
      <internalNodes>
        0 -1 147400 5.7800629292614758e-05</internalNodes>
      <leafValues>
        2.6104342937469482e-01 -4.1190707683563232e-01</leafValues></_>
    <_>
      <internalNodes>
        0 -1 56938 -1.2540087103843689e-01</internalNodes>
      <leafValues>
        5.5860161781311035e-01 -2.4174770712852478e-01</leafValues></_>
    <_>
      <internalNodes>
        0 -1 142443 -6.3087354646995664e-04</internalNodes>
      <leafValues>
        -4.4687294960021973e-01 2.5512924790382385e-01</leafValues></_>
    <_>
      <internalNodes>
        0 -1 9887 -2.0447497069835663e-01</internalNodes>
      <leafValues>
        -8.1981998682022095e-01 1.1223638802766800e-01</leafValues></_></weakClassifiers></stage6>
</opencv_storage>
