<?xml version="1.0"?>
<opencv_storage>
<stage9>
  <maxWeakCount>16</maxWeakCount>
  <stageThreshold>-1.0929307937622070e+00</stageThreshold>
  <weakClassifiers>
    <_>
      <internalNodes>
        0 -1 142829 3.0456823878921568e-05</internalNodes>
      <leafValues>
        4.1751825809478760e-01 -3.7260273098945618e-01</leafValues></_>
    <_>
      <internalNodes>
        0 -1 32896 -2.6752984523773193e-01</internalNodes>
      <leafValues>
        4.0695518255233765e-01 -3.4186044335365295e-01</leafValues></_>
    <_>
      <internalNodes>
        0 -1 26996 -4.4539321213960648e-02</internalNodes>
      <leafValues>
        5.1390063762664795e-01 -2.2216179966926575e-01</leafValues></_>
    <_>
      <internalNodes>
        0 -1 135944 -1.8418312072753906e-02</internalNodes>
      <leafValues>
        5.0497591495513916e-01 -2.2372722625732422e-01</leafValues></_>
    <_>
      <internalNodes>
        0 -1 119634 3.1806030892767012e-04</internalNodes>
      <leafValues>
        1.7524896562099457e-01 -8.0044949054718018e-01</leafValues></_>
    <_>
      <internalNodes>
        0 -1 54167 -6.9893859326839447e-03</internalNodes>
      <leafValues>
        8.7032817304134369e-02 -6.7023867368698120e-01</leafValues></_>
    <_>
      <internalNodes>
        0 -1 161672 -3.4398962743580341e-03</internalNodes>
      <leafValues>
        3.5099095106124878e-01 -2.8798690438270569e-01</leafValues></_>
    <_>
      <internalNodes>
        0 -1 118048 5.7385180145502090e-02</internalNodes>
      <leafValues>
        -1.6964201629161835e-01 7.4150931835174561e-01</leafValues></_>
    <_>
      <internalNodes>
        0 -1 137857 3.1538918847218156e-05</internalNodes>
      <leafValues>
        2.3909680545330048e-01 -4.5462304353713989e-01</leafValues></_>
    <_>
      <internalNodes>
        0 -1 139219 4.7185122966766357e-03</internalNodes>
      <leafValues>
        1.5511263906955719e-01 -6.3273137807846069e-01</leafValues></_>
    <_>
      <internalNodes>
        0 -1 10912 -2.6611071079969406e-02</internalNodes>
      <leafValues>
        -8.1035578250885010e-01 1.0063283890485764e-01</leafValues></_>
    <_>
      <internalNodes>
        0 -1 23732 1.6613503918051720e-02</internalNodes>
      <leafValues>
        -2.0149348676204681e-01 4.4688510894775391e-01</leafValues></_>
    <_>
      <internalNodes>
        0 -1 15 -9.6340687014162540e-04</internalNodes>
      <leafValues>
        -6.5232849121093750e-01 1.5241095423698425e-01</leafValues></_>
    <_>
      <internalNodes>
        0 -1 13717 -7.9139936715364456e-03</internalNodes>
      <leafValues>
        -6.0781192779541016e-01 1.2443964928388596e-01</leafValues></_>
    <_>
      <internalNodes>
        0 -1 13874 1.0161591693758965e-02</internalNodes>
      <leafValues>
        1.2118113040924072e-01 -7.7186578512191772e-01</leafValues></_>
    <_>
      <internalNodes>
        0 -1 103677 -8.1118394155055285e-04</internalNodes>
      <leafValues>
        1.5112584829330444e-01 -5.2501320838928223e-01</leafValues></_></weakClassifiers></stage9>
</opencv_storage>
