<?xml version="1.0"?>
<opencv_storage>
<stage1>
  <maxWeakCount>8</maxWeakCount>
  <stageThreshold>-1.3205947875976562e+00</stageThreshold>
  <weakClassifiers>
    <_>
      <internalNodes>
        0 -1 131430 6.0364797711372375e-02</internalNodes>
      <leafValues>
        -5.6552541255950928e-01 7.6911836862564087e-01</leafValues></_>
    <_>
      <internalNodes>
        0 -1 72952 -1.3222402334213257e-01</internalNodes>
      <leafValues>
        6.2596696615219116e-01 -5.3383982181549072e-01</leafValues></_>
    <_>
      <internalNodes>
        0 -1 33529 -3.8970537483692169e-02</internalNodes>
      <leafValues>
        3.7433207035064697e-01 -7.4502176046371460e-01</leafValues></_>
    <_>
      <internalNodes>
        0 -1 5944 1.6185004264116287e-02</internalNodes>
      <leafValues>
        -3.3579093217849731e-01 5.1578193902969360e-01</leafValues></_>
    <_>
      <internalNodes>
        0 -1 126067 1.5352573245763779e-04</internalNodes>
      <leafValues>
        2.3394195735454559e-01 -7.1538347005844116e-01</leafValues></_>
    <_>
      <internalNodes>
        0 -1 54198 -2.6262141764163971e-02</internalNodes>
      <leafValues>
        1.9943201541900635e-01 -6.9625556468963623e-01</leafValues></_>
    <_>
      <internalNodes>
        0 -1 104205 3.0593068804591894e-03</internalNodes>
      <leafValues>
        2.0411954820156097e-01 -6.2948620319366455e-01</leafValues></_>
    <_>
      <internalNodes>
        0 -1 139534 -1.2674080207943916e-03</internalNodes>
      <leafValues>
        -5.7827723026275635e-01 2.2208958864212036e-01</leafValues></_></weakClassifiers></stage1>
</opencv_storage>
