<?xml version="1.0"?>
<opencv_storage>
<stage3>
  <maxWeakCount>10</maxWeakCount>
  <stageThreshold>-1.1483057737350464e+00</stageThreshold>
  <weakClassifiers>
    <_>
      <internalNodes>
        0 -1 110914 5.9246405959129333e-02</internalNodes>
      <leafValues>
        -7.0568561553955078e-01 6.6116422414779663e-01</leafValues></_>
    <_>
      <internalNodes>
        0 -1 158736 -6.9325314834713936e-03</internalNodes>
      <leafValues>
        6.7840045690536499e-01 -3.3175340294837952e-01</leafValues></_>
    <_>
      <internalNodes>
        0 -1 3189 2.1059454884380102e-03</internalNodes>
      <leafValues>
        -3.9465472102165222e-01 4.7918170690536499e-01</leafValues></_>
    <_>
      <internalNodes>
        0 -1 2585 -4.6430323272943497e-02</internalNodes>
      <leafValues>
        5.4825484752655029e-01 -3.3562788367271423e-01</leafValues></_>
    <_>
      <internalNodes>
        0 -1 145430 -4.3662581592798233e-02</internalNodes>
      <leafValues>
        5.0200724601745605e-01 -3.4369847178459167e-01</leafValues></_>
    <_>
      <internalNodes>
        0 -1 47560 -1.2441412545740604e-02</internalNodes>
      <leafValues>
        4.5575773715972900e-01 -3.6278119683265686e-01</leafValues></_>
    <_>
      <internalNodes>
        0 -1 132329 -1.1385883226466831e-05</internalNodes>
      <leafValues>
        3.2345700263977051e-01 -5.4887866973876953e-01</leafValues></_>
    <_>
      <internalNodes>
        0 -1 103687 -1.3386673344939481e-05</internalNodes>
      <leafValues>
        2.4947047233581543e-01 -6.6215276718139648e-01</leafValues></_>
    <_>
      <internalNodes>
        0 -1 70695 -5.3206663578748703e-03</internalNodes>
      <leafValues>
        5.3038072586059570e-01 -2.9872608184814453e-01</leafValues></_>
    <_>
      <internalNodes>
        0 -1 145483 2.3638837039470673e-02</internalNodes>
      <leafValues>
        -2.2207136452198029e-01 6.3280248641967773e-01</leafValues></_></weakClassifiers></stage3>
</opencv_storage>
