<?xml version="1.0"?>
<opencv_storage>
<stage22>
  <maxWeakCount>19</maxWeakCount>
  <stageThreshold>-9.0953356027603149e-01</stageThreshold>
  <weakClassifiers>
    <_>
      <internalNodes>
        0 -1 120163 -2.8445769567042589e-04</internalNodes>
      <leafValues>
        5.9815949201583862e-01 -7.4152544140815735e-02</leafValues></_>
    <_>
      <internalNodes>
        0 -1 131897 -9.1972964582964778e-04</internalNodes>
      <leafValues>
        -6.5144658088684082e-01 2.0956511795520782e-01</leafValues></_>
    <_>
      <internalNodes>
        0 -1 59334 -8.3810923388227820e-04</internalNodes>
      <leafValues>
        3.4663000702857971e-01 -3.0217871069908142e-01</leafValues></_>
    <_>
      <internalNodes>
        0 -1 18818 2.7354839257895947e-03</internalNodes>
      <leafValues>
        -2.2751274704933167e-01 4.1281145811080933e-01</leafValues></_>
    <_>
      <internalNodes>
        0 -1 8148 4.6565085649490356e-03</internalNodes>
      <leafValues>
        -1.7357981204986572e-01 7.0699101686477661e-01</leafValues></_>
    <_>
      <internalNodes>
        0 -1 126896 1.0917253093793988e-03</internalNodes>
      <leafValues>
        1.8425574898719788e-01 -7.0562088489532471e-01</leafValues></_>
    <_>
      <internalNodes>
        0 -1 38788 -1.5306102577596903e-03</internalNodes>
      <leafValues>
        -4.6724605560302734e-01 1.8825235962867737e-01</leafValues></_>
    <_>
      <internalNodes>
        0 -1 46137 1.3145972043275833e-02</internalNodes>
      <leafValues>
        -1.4651228487491608e-01 7.4396419525146484e-01</leafValues></_>
    <_>
      <internalNodes>
        0 -1 43235 -1.3786857380182482e-05</internalNodes>
      <leafValues>
        3.0864548683166504e-01 -2.9720321297645569e-01</leafValues></_>
    <_>
      <internalNodes>
        0 -1 76829 -1.5968401567079127e-04</internalNodes>
      <leafValues>
        2.2017413377761841e-01 -4.3886026740074158e-01</leafValues></_>
    <_>
      <internalNodes>
        0 -1 137892 -5.1393255125731230e-04</internalNodes>
      <leafValues>
        2.1931317448616028e-01 -4.4727215170860291e-01</leafValues></_>
    <_>
      <internalNodes>
        0 -1 31241 -1.4995864592492580e-02</internalNodes>
      <leafValues>
        5.7178682088851929e-01 -1.8579177558422089e-01</leafValues></_>
    <_>
      <internalNodes>
        0 -1 20480 -1.2718240031972528e-04</internalNodes>
      <leafValues>
        2.6898384094238281e-01 -3.7451484799385071e-01</leafValues></_>
    <_>
      <internalNodes>
        0 -1 54238 -3.4552686847746372e-03</internalNodes>
      <leafValues>
        3.2329198718070984e-01 -2.9083585739135742e-01</leafValues></_>
    <_>
      <internalNodes>
        0 -1 120812 -6.3826289260759950e-04</internalNodes>
      <leafValues>
        4.6110552549362183e-01 -1.9856601953506470e-01</leafValues></_>
    <_>
      <internalNodes>
        0 -1 59028 -1.8402025103569031e-02</internalNodes>
      <leafValues>
        2.2822006046772003e-01 -4.3801692128181458e-01</leafValues></_>
    <_>
      <internalNodes>
        0 -1 21750 -9.2048174701631069e-04</internalNodes>
      <leafValues>
        2.7661585807800293e-01 -3.4903001785278320e-01</leafValues></_>
    <_>
      <internalNodes>
        0 -1 33969 -2.0543059334158897e-02</internalNodes>
      <leafValues>
        6.7792958021163940e-01 -1.4751484990119934e-01</leafValues></_>
    <_>
      <internalNodes>
        0 -1 59035 4.8321396112442017e-02</internalNodes>
      <leafValues>
        -9.2913515865802765e-02 8.0479854345321655e-01</leafValues></_></weakClassifiers></stage22>
</opencv_storage>
