<?xml version="1.0"?>
<opencv_storage>
<stage5>
  <maxWeakCount>12</maxWeakCount>
  <stageThreshold>-1.2602713108062744e+00</stageThreshold>
  <weakClassifiers>
    <_>
      <internalNodes>
        0 -1 147047 -2.6616053219186142e-05</internalNodes>
      <leafValues>
        6.4881813526153564e-01 -2.9625150561332703e-01</leafValues></_>
    <_>
      <internalNodes>
        0 -1 161563 -3.8341414183378220e-03</internalNodes>
      <leafValues>
        5.7389336824417114e-01 -3.3865624666213989e-01</leafValues></_>
    <_>
      <internalNodes>
        0 -1 59600 -1.1007875204086304e-02</internalNodes>
      <leafValues>
        4.2404580116271973e-01 -4.4203066825866699e-01</leafValues></_>
    <_>
      <internalNodes>
        0 -1 138078 1.8687723786570132e-04</internalNodes>
      <leafValues>
        2.0699144899845123e-01 -8.0540847778320312e-01</leafValues></_>
    <_>
      <internalNodes>
        0 -1 35007 1.6090843826532364e-02</internalNodes>
      <leafValues>
        -3.3882561326026917e-01 4.3822413682937622e-01</leafValues></_>
    <_>
      <internalNodes>
        0 -1 125101 -1.7249181109946221e-04</internalNodes>
      <leafValues>
        1.9645453989505768e-01 -6.5265440940856934e-01</leafValues></_>
    <_>
      <internalNodes>
        0 -1 122725 -1.1322444304823875e-02</internalNodes>
      <leafValues>
        2.1175645291805267e-01 -6.3397806882858276e-01</leafValues></_>
    <_>
      <internalNodes>
        0 -1 81046 -1.4076458755880594e-03</internalNodes>
      <leafValues>
        2.7413588762283325e-01 -5.2107685804367065e-01</leafValues></_>
    <_>
      <internalNodes>
        0 -1 104789 -2.2403425537049770e-03</internalNodes>
      <leafValues>
        -8.0733376741409302e-01 1.2327823042869568e-01</leafValues></_>
    <_>
      <internalNodes>
        0 -1 45478 -7.0618256926536560e-02</internalNodes>
      <leafValues>
        -8.0737996101379395e-01 1.2530945241451263e-01</leafValues></_>
    <_>
      <internalNodes>
        0 -1 147401 -2.7800837415270507e-05</internalNodes>
      <leafValues>
        2.9748809337615967e-01 -4.2895409464836121e-01</leafValues></_>
    <_>
      <internalNodes>
        0 -1 104792 -1.5706247722846456e-05</internalNodes>
      <leafValues>
        2.2476595640182495e-01 -5.9665417671203613e-01</leafValues></_></weakClassifiers></stage5>
</opencv_storage>
