<?xml version="1.0"?>
<opencv_storage>
<stage4>
  <maxWeakCount>8</maxWeakCount>
  <stageThreshold>-9.5192867517471313e-01</stageThreshold>
  <weakClassifiers>
    <_>
      <internalNodes>
        0 -1 150775 -3.1753912568092346e-02</internalNodes>
      <leafValues>
        8.1448882818222046e-01 -7.2382293641567230e-02</leafValues></_>
    <_>
      <internalNodes>
        0 -1 43849 -1.7580300569534302e-02</internalNodes>
      <leafValues>
        5.1367932558059692e-01 -4.3867290019989014e-01</leafValues></_>
    <_>
      <internalNodes>
        0 -1 144489 -1.3071985915303230e-02</internalNodes>
      <leafValues>
        4.0427199006080627e-01 -4.4993710517883301e-01</leafValues></_>
    <_>
      <internalNodes>
        0 -1 6699 3.8139251992106438e-03</internalNodes>
      <leafValues>
        -4.0921720862388611e-01 4.7190353274345398e-01</leafValues></_>
    <_>
      <internalNodes>
        0 -1 70695 -7.5886831618845463e-03</internalNodes>
      <leafValues>
        5.8124589920043945e-01 -3.0858752131462097e-01</leafValues></_>
    <_>
      <internalNodes>
        0 -1 112805 -1.2674024219450075e-05</internalNodes>
      <leafValues>
        3.5668104887008667e-01 -5.0609385967254639e-01</leafValues></_>
    <_>
      <internalNodes>
        0 -1 118301 -6.5062515204772353e-05</internalNodes>
      <leafValues>
        2.2918483614921570e-01 -6.7239439487457275e-01</leafValues></_>
    <_>
      <internalNodes>
        0 -1 5646 -2.8657144308090210e-01</internalNodes>
      <leafValues>
        -9.1308528184890747e-01 1.3440248370170593e-01</leafValues></_></weakClassifiers></stage4>
</opencv_storage>
