<?xml version="1.0"?>
<opencv_storage>
<stage21>
  <maxWeakCount>20</maxWeakCount>
  <stageThreshold>-7.8916716575622559e-01</stageThreshold>
  <weakClassifiers>
    <_>
      <internalNodes>
        0 -1 97733 -4.3444661423563957e-03</internalNodes>
      <leafValues>
        5.4238075017929077e-01 -9.5816463232040405e-02</leafValues></_>
    <_>
      <internalNodes>
        0 -1 138093 -6.2524346867576241e-04</internalNodes>
      <leafValues>
        3.2882061600685120e-01 -2.7871948480606079e-01</leafValues></_>
    <_>
      <internalNodes>
        0 -1 48951 -5.2984066307544708e-02</internalNodes>
      <leafValues>
        5.3928792476654053e-01 -1.7775022983551025e-01</leafValues></_>
    <_>
      <internalNodes>
        0 -1 101365 -3.4359563142061234e-03</internalNodes>
      <leafValues>
        1.2150003015995026e-01 -6.1721390485763550e-01</leafValues></_>
    <_>
      <internalNodes>
        0 -1 146396 -1.3604791092802770e-05</internalNodes>
      <leafValues>
        2.6848304271697998e-01 -3.4389892220497131e-01</leafValues></_>
    <_>
      <internalNodes>
        0 -1 135260 3.5525307059288025e-02</internalNodes>
      <leafValues>
        -1.9818556308746338e-01 5.1798349618911743e-01</leafValues></_>
    <_>
      <internalNodes>
        0 -1 78222 4.1170418262481689e-04</internalNodes>
      <leafValues>
        1.2746067345142365e-01 -7.5605404376983643e-01</leafValues></_>
    <_>
      <internalNodes>
        0 -1 19800 -3.2372083514928818e-03</internalNodes>
      <leafValues>
        2.6958298683166504e-01 -3.3554437756538391e-01</leafValues></_>
    <_>
      <internalNodes>
        0 -1 21577 -3.6879826802760363e-03</internalNodes>
      <leafValues>
        5.2487677335739136e-01 -1.7659385502338409e-01</leafValues></_>
    <_>
      <internalNodes>
        0 -1 97098 8.1431629951111972e-05</internalNodes>
      <leafValues>
        1.8020471930503845e-01 -4.3987372517585754e-01</leafValues></_>
    <_>
      <internalNodes>
        0 -1 13320 -1.9662743434309959e-03</internalNodes>
      <leafValues>
        -4.6004036068916321e-01 1.5893027186393738e-01</leafValues></_>
    <_>
      <internalNodes>
        0 -1 146893 -1.3978837523609400e-03</internalNodes>
      <leafValues>
        4.0537282824516296e-01 -2.1776080131530762e-01</leafValues></_>
    <_>
      <internalNodes>
        0 -1 158746 -1.4592409133911133e-02</internalNodes>
      <leafValues>
        3.8185206055641174e-01 -2.3892149329185486e-01</leafValues></_>
    <_>
      <internalNodes>
        0 -1 74750 -1.4229489490389824e-02</internalNodes>
      <leafValues>
        1.0718654096126556e-01 -7.9312956333160400e-01</leafValues></_>
    <_>
      <internalNodes>
        0 -1 70237 -2.1844783332198858e-03</internalNodes>
      <leafValues>
        2.9102963209152222e-01 -2.8400665521621704e-01</leafValues></_>
    <_>
      <internalNodes>
        0 -1 37981 -9.9621269328054041e-05</internalNodes>
      <leafValues>
        -3.7152552604675293e-01 2.1157956123352051e-01</leafValues></_>
    <_>
      <internalNodes>
        0 -1 65664 5.5210385471582413e-04</internalNodes>
      <leafValues>
        -2.1573702991008759e-01 3.4017914533615112e-01</leafValues></_>
    <_>
      <internalNodes>
        0 -1 64272 1.3286750763654709e-03</internalNodes>
      <leafValues>
        -1.2732842564582825e-01 6.5045392513275146e-01</leafValues></_>
    <_>
      <internalNodes>
        0 -1 82778 7.4127569794654846e-02</internalNodes>
      <leafValues>
        -1.2281074374914169e-01 6.3357126712799072e-01</leafValues></_>
    <_>
      <internalNodes>
        0 -1 120648 -3.2189391553401947e-02</internalNodes>
      <leafValues>
        6.5672200918197632e-01 -1.0242273658514023e-01</leafValues></_></weakClassifiers></stage21>
</opencv_storage>
