<?xml version="1.0"?>
<opencv_storage>
<stage3>
  <maxWeakCount>10</maxWeakCount>
  <stageThreshold>-1.2653820514678955e+00</stageThreshold>
  <weakClassifiers>
    <_>
      <internalNodes>
        0 -1 131848 -1.4774411283724476e-05</internalNodes>
      <leafValues>
        6.0482132434844971e-01 -5.2859616279602051e-01</leafValues></_>
    <_>
      <internalNodes>
        0 -1 154154 2.9861770570278168e-02</internalNodes>
      <leafValues>
        -2.5350981950759888e-01 8.6699557304382324e-01</leafValues></_>
    <_>
      <internalNodes>
        0 -1 43792 -8.2441903650760651e-03</internalNodes>
      <leafValues>
        4.9488410353660583e-01 -3.9785993099212646e-01</leafValues></_>
    <_>
      <internalNodes>
        0 -1 78795 -5.0214556977152824e-03</internalNodes>
      <leafValues>
        2.3779529333114624e-01 -7.6693296432495117e-01</leafValues></_>
    <_>
      <internalNodes>
        0 -1 4134 5.8631617575883865e-03</internalNodes>
      <leafValues>
        -3.6635747551918030e-01 5.0199645757675171e-01</leafValues></_>
    <_>
      <internalNodes>
        0 -1 71407 2.6571463793516159e-02</internalNodes>
      <leafValues>
        -2.9717496037483215e-01 6.5241760015487671e-01</leafValues></_>
    <_>
      <internalNodes>
        0 -1 126625 -1.3022142411500681e-05</internalNodes>
      <leafValues>
        3.6001622676849365e-01 -4.6500867605209351e-01</leafValues></_>
    <_>
      <internalNodes>
        0 -1 90756 1.5695368871092796e-02</internalNodes>
      <leafValues>
        2.4543268978595734e-01 -6.7159193754196167e-01</leafValues></_>
    <_>
      <internalNodes>
        0 -1 150559 -1.2546887621283531e-02</internalNodes>
      <leafValues>
        5.4023951292037964e-01 -3.2161095738410950e-01</leafValues></_>
    <_>
      <internalNodes>
        0 -1 141494 5.0084128975868225e-02</internalNodes>
      <leafValues>
        -2.5190958380699158e-01 6.8389719724655151e-01</leafValues></_></weakClassifiers></stage3>
</opencv_storage>
