<?xml version="1.0"?>
<opencv_storage>
<stage40>
  <maxWeakCount>66</maxWeakCount>
  <stageThreshold>-4.1592270135879517e-01</stageThreshold>
  <weakClassifiers>
    <_>
      <internalNodes>
        0 -1 87591 -1.4514577342197299e-03</internalNodes>
      <leafValues>
        6.4188706874847412e-01 3.3610647916793823e-01</leafValues></_>
    <_>
      <internalNodes>
        0 -1 110700 7.9760124208405614e-04</internalNodes>
      <leafValues>
        1.9943676888942719e-01 -1.9616305828094482e-01</leafValues></_>
    <_>
      <internalNodes>
        0 -1 76135 2.8840724378824234e-02</internalNodes>
      <leafValues>
        8.5868827998638153e-02 -3.5095706582069397e-01</leafValues></_>
    <_>
      <internalNodes>
        0 -1 112570 -9.3958480283617973e-04</internalNodes>
      <leafValues>
        2.0742307603359222e-01 -1.8820637464523315e-01</leafValues></_>
    <_>
      <internalNodes>
        0 -1 86862 1.8489056965336204e-03</internalNodes>
      <leafValues>
        -7.2635836899280548e-02 3.9677053689956665e-01</leafValues></_>
    <_>
      <internalNodes>
        0 -1 124277 1.8017648835666478e-04</internalNodes>
      <leafValues>
        1.2452191114425659e-01 -2.2307427227497101e-01</leafValues></_>
    <_>
      <internalNodes>
        0 -1 25800 1.8814718350768089e-02</internalNodes>
      <leafValues>
        7.0238441228866577e-02 -4.4831895828247070e-01</leafValues></_>
    <_>
      <internalNodes>
        0 -1 113110 -3.1242771074175835e-03</internalNodes>
      <leafValues>
        2.6175159215927124e-01 -9.4062142074108124e-02</leafValues></_>
    <_>
      <internalNodes>
        0 -1 102227 -2.4111466482281685e-03</internalNodes>
      <leafValues>
        1.1734941601753235e-01 -2.1514195203781128e-01</leafValues></_>
    <_>
      <internalNodes>
        0 -1 31005 3.9935000240802765e-03</internalNodes>
      <leafValues>
        1.4204895496368408e-01 -1.8805982172489166e-01</leafValues></_>
    <_>
      <internalNodes>
        0 -1 48012 2.1221950650215149e-01</internalNodes>
      <leafValues>
        -4.3617010116577148e-02 7.8005981445312500e-01</leafValues></_>
    <_>
      <internalNodes>
        0 -1 152620 2.4768758565187454e-02</internalNodes>
      <leafValues>
        -6.4176514744758606e-02 3.2631999254226685e-01</leafValues></_>
    <_>
      <internalNodes>
        0 -1 33202 8.6082669440656900e-05</internalNodes>
      <leafValues>
        1.1445452272891998e-01 -1.9333536922931671e-01</leafValues></_>
    <_>
      <internalNodes>
        0 -1 103571 -2.3595623672008514e-02</internalNodes>
      <leafValues>
        -1.4314319193363190e-01 1.5193876624107361e-01</leafValues></_>
    <_>
      <internalNodes>
        0 -1 132588 1.4899001689627767e-04</internalNodes>
      <leafValues>
        1.1778382211923599e-01 -1.8983343243598938e-01</leafValues></_>
    <_>
      <internalNodes>
        0 -1 107259 1.2833958864212036e-01</internalNodes>
      <leafValues>
        5.9044104069471359e-02 -3.5100874304771423e-01</leafValues></_>
    <_>
      <internalNodes>
        0 -1 3316 -4.2288638651371002e-02</internalNodes>
      <leafValues>
        4.0509852766990662e-01 -5.1964122802019119e-02</leafValues></_>
    <_>
      <internalNodes>
        0 -1 45849 2.0933960378170013e-01</internalNodes>
      <leafValues>
        3.3578041940927505e-02 -6.7955547571182251e-01</leafValues></_>
    <_>
      <internalNodes>
        0 -1 70350 5.0902232527732849e-02</internalNodes>
      <leafValues>
        -4.1379179805517197e-02 6.2451589107513428e-01</leafValues></_>
    <_>
      <internalNodes>
        0 -1 151671 1.8499266298022121e-04</internalNodes>
      <leafValues>
        1.4413394033908844e-01 -1.5425425767898560e-01</leafValues></_>
    <_>
      <internalNodes>
        0 -1 138365 3.6062400788068771e-02</internalNodes>
      <leafValues>
        -6.4510777592658997e-02 3.6407575011253357e-01</leafValues></_>
    <_>
      <internalNodes>
        0 -1 119897 -3.5946727730333805e-03</internalNodes>
      <leafValues>
        -5.0398105382919312e-01 4.9307454377412796e-02</leafValues></_>
    <_>
      <internalNodes>
        0 -1 36597 7.2610810399055481e-02</internalNodes>
      <leafValues>
        -5.9306476265192032e-02 3.4831333160400391e-01</leafValues></_>
    <_>
      <internalNodes>
        0 -1 9595 4.5875493437051773e-02</internalNodes>
      <leafValues>
        -8.0713778734207153e-02 2.4325260519981384e-01</leafValues></_>
    <_>
      <internalNodes>
        0 -1 17372 4.6613058075308800e-03</internalNodes>
      <leafValues>
        1.4983744919300079e-01 -1.6938447952270508e-01</leafValues></_>
    <_>
      <internalNodes>
        0 -1 41544 -8.5561191663146019e-03</internalNodes>
      <leafValues>
        -3.5689359903335571e-01 5.9587497264146805e-02</leafValues></_>
    <_>
      <internalNodes>
        0 -1 71726 -1.5775427222251892e-02</internalNodes>
      <leafValues>
        2.5921186804771423e-01 -8.7333865463733673e-02</leafValues></_>
    <_>
      <internalNodes>
        0 -1 111229 -3.1181059312075377e-03</internalNodes>
      <leafValues>
        1.2516909837722778e-01 -1.6404296457767487e-01</leafValues></_>
    <_>
      <internalNodes>
        0 -1 142 3.1988481059670448e-03</internalNodes>
      <leafValues>
        -9.7038321197032928e-02 2.3499876260757446e-01</leafValues></_>
    <_>
      <internalNodes>
        0 -1 14408 3.3796854317188263e-02</internalNodes>
      <leafValues>
        7.9603970050811768e-02 -2.6854243874549866e-01</leafValues></_>
    <_>
      <internalNodes>
        0 -1 128842 -1.1887622997164726e-02</internalNodes>
      <leafValues>
        -7.2751909494400024e-01 2.8574980795383453e-02</leafValues></_>
    <_>
      <internalNodes>
        0 -1 137670 -1.7984010046347976e-03</internalNodes>
      <leafValues>
        2.7894261479377747e-01 -8.0133743584156036e-02</leafValues></_>
    <_>
      <internalNodes>
        0 -1 120747 -7.2662881575524807e-04</internalNodes>
      <leafValues>
        3.5440894961357117e-01 -6.3684426248073578e-02</leafValues></_>
    <_>
      <internalNodes>
        0 -1 149596 3.6548003554344177e-02</internalNodes>
      <leafValues>
        -7.9458154737949371e-02 2.4794925749301910e-01</leafValues></_>
    <_>
      <internalNodes>
        0 -1 70553 -5.8431473007658496e-05</internalNodes>
      <leafValues>
        -1.5242078900337219e-01 1.3735912740230560e-01</leafValues></_>
    <_>
      <internalNodes>
        0 -1 111401 2.7788451407104731e-03</internalNodes>
      <leafValues>
        7.7061906456947327e-02 -2.7008712291717529e-01</leafValues></_>
    <_>
      <internalNodes>
        0 -1 85334 1.1896474752575159e-03</internalNodes>
      <leafValues>
        -8.7876543402671814e-02 2.5595355033874512e-01</leafValues></_>
    <_>
      <internalNodes>
        0 -1 37779 -4.3413839302957058e-03</internalNodes>
      <leafValues>
        2.2817422449588776e-01 -7.8607007861137390e-02</leafValues></_>
    <_>
      <internalNodes>
        0 -1 125424 1.1032217880710959e-03</internalNodes>
      <leafValues>
        5.8593537658452988e-02 -3.3280181884765625e-01</leafValues></_>
    <_>
      <internalNodes>
        0 -1 159651 -1.6678937245160341e-03</internalNodes>
      <leafValues>
        2.9674479365348816e-01 -7.2324723005294800e-02</leafValues></_>
    <_>
      <internalNodes>
        0 -1 129046 -5.9261536225676537e-03</internalNodes>
      <leafValues>
        2.6344230771064758e-01 -7.5311623513698578e-02</leafValues></_>
    <_>
      <internalNodes>
        0 -1 100905 -2.6280209422111511e-03</internalNodes>
      <leafValues>
        -2.7586367726325989e-01 6.9052658975124359e-02</leafValues></_>
    <_>
      <internalNodes>
        0 -1 155049 1.2041356414556503e-02</internalNodes>
      <leafValues>
        3.2959282398223877e-02 -5.6311923265457153e-01</leafValues></_>
    <_>
      <internalNodes>
        0 -1 98200 1.3213987462222576e-02</internalNodes>
      <leafValues>
        -2.9115732759237289e-02 6.7299759387969971e-01</leafValues></_>
    <_>
      <internalNodes>
        0 -1 127671 4.8975329846143723e-03</internalNodes>
      <leafValues>
        4.6846780925989151e-02 -4.3932273983955383e-01</leafValues></_>
    <_>
      <internalNodes>
        0 -1 65996 -3.6189720034599304e-02</internalNodes>
      <leafValues>
        5.2676624059677124e-01 -3.9547044783830643e-02</leafValues></_>
    <_>
      <internalNodes>
        0 -1 129449 -2.5985022075474262e-03</internalNodes>
      <leafValues>
        3.1370064616203308e-01 -5.9935592114925385e-02</leafValues></_>
    <_>
      <internalNodes>
        0 -1 128614 -3.9949137135408819e-04</internalNodes>
      <leafValues>
        -1.3771784305572510e-01 1.5454220771789551e-01</leafValues></_>
    <_>
      <internalNodes>
        0 -1 110234 9.4862161204218864e-03</internalNodes>
      <leafValues>
        -6.1707619577646255e-02 3.4166586399078369e-01</leafValues></_>
    <_>
      <internalNodes>
        0 -1 98103 -1.4505500439554453e-03</internalNodes>
      <leafValues>
        2.2885288298130035e-01 -8.6823344230651855e-02</leafValues></_>
    <_>
      <internalNodes>
        0 -1 34904 1.6571185551583767e-04</internalNodes>
      <leafValues>
        9.6087776124477386e-02 -2.4711540341377258e-01</leafValues></_>
    <_>
      <internalNodes>
        0 -1 148715 6.1358814127743244e-03</internalNodes>
      <leafValues>
        -1.0585832595825195e-01 2.2732602059841156e-01</leafValues></_>
    <_>
      <internalNodes>
        0 -1 150613 -3.9592576213181019e-03</internalNodes>
      <leafValues>
        2.1966618299484253e-01 -1.0398846119642258e-01</leafValues></_>
    <_>
      <internalNodes>
        0 -1 34437 -6.9086868315935135e-03</internalNodes>
      <leafValues>
        2.5749298930168152e-01 -7.5562380254268646e-02</leafValues></_>
    <_>
      <internalNodes>
        0 -1 157140 3.6326405825093389e-04</internalNodes>
      <leafValues>
        -9.4234474003314972e-02 2.0804183185100555e-01</leafValues></_>
    <_>
      <internalNodes>
        0 -1 95697 -4.9292710609734058e-03</internalNodes>
      <leafValues>
        1.5141569077968597e-01 -1.2733791768550873e-01</leafValues></_>
    <_>
      <internalNodes>
        0 -1 98648 2.1111888810992241e-02</internalNodes>
      <leafValues>
        3.1884562224149704e-02 -5.6437176465988159e-01</leafValues></_>
    <_>
      <internalNodes>
        0 -1 83638 3.9292713627219200e-03</internalNodes>
      <leafValues>
        9.3600906431674957e-02 -2.0067436993122101e-01</leafValues></_>
    <_>
      <internalNodes>
        0 -1 92563 -6.5701478160917759e-03</internalNodes>
      <leafValues>
        -4.7551059722900391e-01 4.5509975403547287e-02</leafValues></_>
    <_>
      <internalNodes>
        0 -1 27613 -4.1497945785522461e-03</internalNodes>
      <leafValues>
        1.8731360137462616e-01 -1.0703597217798233e-01</leafValues></_>
    <_>
      <internalNodes>
        0 -1 125897 -5.3648101165890694e-03</internalNodes>
      <leafValues>
        2.1517370641231537e-01 -8.9779809117317200e-02</leafValues></_>
    <_>
      <internalNodes>
        0 -1 86624 -4.0958628058433533e-02</internalNodes>
      <leafValues>
        -3.3592709898948669e-01 5.9650622308254242e-02</leafValues></_>
    <_>
      <internalNodes>
        0 -1 19880 -3.7209283560514450e-02</internalNodes>
      <leafValues>
        -1.6185620427131653e-01 1.5681590139865875e-01</leafValues></_>
    <_>
      <internalNodes>
        0 -1 57738 -1.1384945362806320e-02</internalNodes>
      <leafValues>
        2.8231984376907349e-01 -7.8842572867870331e-02</leafValues></_>
    <_>
      <internalNodes>
        0 -1 125701 -3.2864932436496019e-03</internalNodes>
      <leafValues>
        -2.7930495142936707e-01 6.7832455039024353e-02</leafValues></_>
    <_>
      <internalNodes>
        0 -1 153137 4.3342383578419685e-03</internalNodes>
      <leafValues>
        -2.8929948806762695e-02 7.0522117614746094e-01</leafValues></_></weakClassifiers></stage40>
</opencv_storage>
