<?xml version="1.0"?>
<opencv_storage>
<stage3>
  <maxWeakCount>34</maxWeakCount>
  <stageThreshold>-5.5346012115478516e-01</stageThreshold>
  <weakClassifiers>
    <_>
      <internalNodes>
        0 -1 57880 -2.4614576250314713e-02</internalNodes>
      <leafValues>
        8.2020682096481323e-01 3.5378715395927429e-01</leafValues></_>
    <_>
      <internalNodes>
        0 -1 85937 -5.5721383541822433e-03</internalNodes>
      <leafValues>
        4.9629375338554382e-01 -3.6953140050172806e-02</leafValues></_>
    <_>
      <internalNodes>
        0 -1 110850 -7.9455482773482800e-04</internalNodes>
      <leafValues>
        2.2435492277145386e-01 -3.1891465187072754e-01</leafValues></_>
    <_>
      <internalNodes>
        0 -1 126062 -3.0862585845170543e-05</internalNodes>
      <leafValues>
        2.5560423731803894e-01 -2.3798272013664246e-01</leafValues></_>
    <_>
      <internalNodes>
        0 -1 142705 -4.9958052113652229e-03</internalNodes>
      <leafValues>
        4.3752941489219666e-01 -1.7248927056789398e-01</leafValues></_>
    <_>
      <internalNodes>
        0 -1 10807 -4.1142702102661133e-02</internalNodes>
      <leafValues>
        7.0341604948043823e-01 -7.8132361173629761e-02</leafValues></_>
    <_>
      <internalNodes>
        0 -1 6801 -9.3747917562723160e-03</internalNodes>
      <leafValues>
        3.0337211489677429e-01 -1.5789873898029327e-01</leafValues></_>
    <_>
      <internalNodes>
        0 -1 29083 -1.1534672975540161e-01</internalNodes>
      <leafValues>
        7.1669131517410278e-01 -6.0181658715009689e-02</leafValues></_>
    <_>
      <internalNodes>
        0 -1 125517 -1.1484478600323200e-02</internalNodes>
      <leafValues>
        5.4430741071701050e-01 -8.3536848425865173e-02</leafValues></_>
    <_>
      <internalNodes>
        0 -1 101175 -5.6224591098725796e-03</internalNodes>
      <leafValues>
        -6.8261563777923584e-01 7.3634080588817596e-02</leafValues></_>
    <_>
      <internalNodes>
        0 -1 80013 1.3342739082872868e-02</internalNodes>
      <leafValues>
        -1.3669762015342712e-01 3.4349361062049866e-01</leafValues></_>
    <_>
      <internalNodes>
        0 -1 150998 7.6613761484622955e-03</internalNodes>
      <leafValues>
        -1.3609957695007324e-01 4.1548568010330200e-01</leafValues></_>
    <_>
      <internalNodes>
        0 -1 103604 -3.2349154935218394e-05</internalNodes>
      <leafValues>
        2.2238552570343018e-01 -2.1505318582057953e-01</leafValues></_>
    <_>
      <internalNodes>
        0 -1 19066 -4.2488854378461838e-02</internalNodes>
      <leafValues>
        5.0681751966476440e-01 -9.8425783216953278e-02</leafValues></_>
    <_>
      <internalNodes>
        0 -1 7577 9.1924387961626053e-03</internalNodes>
      <leafValues>
        -1.2401895225048065e-01 4.0567362308502197e-01</leafValues></_>
    <_>
      <internalNodes>
        0 -1 119427 -4.1945902630686760e-03</internalNodes>
      <leafValues>
        -7.2608315944671631e-01 7.9753078520298004e-02</leafValues></_>
    <_>
      <internalNodes>
        0 -1 150530 -1.4705301728099585e-03</internalNodes>
      <leafValues>
        3.1891602277755737e-01 -1.6032581031322479e-01</leafValues></_>
    <_>
      <internalNodes>
        0 -1 67541 -6.2386058270931244e-03</internalNodes>
      <leafValues>
        -5.9672939777374268e-01 7.9486057162284851e-02</leafValues></_>
    <_>
      <internalNodes>
        0 -1 104013 -2.7052348741563037e-05</internalNodes>
      <leafValues>
        2.0867890119552612e-01 -2.3834505677223206e-01</leafValues></_>
    <_>
      <internalNodes>
        0 -1 137208 -1.5264749526977539e-02</internalNodes>
      <leafValues>
        3.8772237300872803e-01 -1.2223920226097107e-01</leafValues></_>
    <_>
      <internalNodes>
        0 -1 137517 2.5066647678613663e-02</internalNodes>
      <leafValues>
        -9.8041430115699768e-02 5.3447771072387695e-01</leafValues></_>
    <_>
      <internalNodes>
        0 -1 69014 9.4771925359964371e-03</internalNodes>
      <leafValues>
        -8.4007158875465393e-02 4.3752622604370117e-01</leafValues></_>
    <_>
      <internalNodes>
        0 -1 147824 -3.1883206247584894e-05</internalNodes>
      <leafValues>
        2.4518184363842010e-01 -1.6919048130512238e-01</leafValues></_>
    <_>
      <internalNodes>
        0 -1 147824 3.0822131520835683e-05</internalNodes>
      <leafValues>
        -1.7279826104640961e-01 2.2663663327693939e-01</leafValues></_>
    <_>
      <internalNodes>
        0 -1 111994 2.3845629766583443e-03</internalNodes>
      <leafValues>
        7.9533897340297699e-02 -5.3601598739624023e-01</leafValues></_>
    <_>
      <internalNodes>
        0 -1 125889 -1.9643111154437065e-03</internalNodes>
      <leafValues>
        -4.4575095176696777e-01 9.4144970178604126e-02</leafValues></_>
    <_>
      <internalNodes>
        0 -1 93675 -3.2845148816704750e-03</internalNodes>
      <leafValues>
        4.6864199638366699e-01 -8.5985071957111359e-02</leafValues></_>
    <_>
      <internalNodes>
        0 -1 82449 -3.6959715187549591e-02</internalNodes>
      <leafValues>
        4.2488366365432739e-01 -8.6509563028812408e-02</leafValues></_>
    <_>
      <internalNodes>
        0 -1 104745 -1.4380070751940366e-05</internalNodes>
      <leafValues>
        2.1334506571292877e-01 -1.8516989052295685e-01</leafValues></_>
    <_>
      <internalNodes>
        0 -1 130711 9.1792754828929901e-03</internalNodes>
      <leafValues>
        -7.3452547192573547e-02 5.6294643878936768e-01</leafValues></_>
    <_>
      <internalNodes>
        0 -1 117905 -5.2822474390268326e-03</internalNodes>
      <leafValues>
        -4.7510108351707458e-01 9.3447841703891754e-02</leafValues></_>
    <_>
      <internalNodes>
        0 -1 83527 -2.6462927053216845e-05</internalNodes>
      <leafValues>
        2.3867760598659515e-01 -1.6021387279033661e-01</leafValues></_>
    <_>
      <internalNodes>
        0 -1 8204 1.3395201414823532e-02</internalNodes>
      <leafValues>
        -6.0386560857295990e-02 6.1497145891189575e-01</leafValues></_>
    <_>
      <internalNodes>
        0 -1 65940 7.2779446840286255e-02</internalNodes>
      <leafValues>
        -8.9625433087348938e-02 4.3019363284111023e-01</leafValues></_></weakClassifiers></stage3>
</opencv_storage>
