<?xml version="1.0"?>
<opencv_storage>
<stage18>
  <maxWeakCount>94</maxWeakCount>
  <stageThreshold>-3.5973995923995972e-01</stageThreshold>
  <weakClassifiers>
    <_>
      <internalNodes>
        0 -1 57873 -5.6806951761245728e-03</internalNodes>
      <leafValues>
        6.8232798576354980e-01 4.2198309302330017e-01</leafValues></_>
    <_>
      <internalNodes>
        0 -1 40311 -6.0964518785476685e-01</internalNodes>
      <leafValues>
        7.7213585376739502e-01 7.4185378849506378e-02</leafValues></_>
    <_>
      <internalNodes>
        0 -1 118365 -8.2938652485609055e-03</internalNodes>
      <leafValues>
        1.9598820805549622e-01 -1.2658768892288208e-01</leafValues></_>
    <_>
      <internalNodes>
        0 -1 161372 7.4773626402020454e-03</internalNodes>
      <leafValues>
        -5.6236509233713150e-02 3.4437817335128784e-01</leafValues></_>
    <_>
      <internalNodes>
        0 -1 142626 5.5120158940553665e-03</internalNodes>
      <leafValues>
        -5.3939480334520340e-02 6.2887948751449585e-01</leafValues></_>
    <_>
      <internalNodes>
        0 -1 142826 -1.1390065774321556e-03</internalNodes>
      <leafValues>
        3.7937685847282410e-01 -3.7030767649412155e-02</leafValues></_>
    <_>
      <internalNodes>
        0 -1 108727 -5.8789976174011827e-04</internalNodes>
      <leafValues>
        1.4998033642768860e-01 -1.4109246432781219e-01</leafValues></_>
    <_>
      <internalNodes>
        0 -1 91345 -2.3170959204435349e-02</internalNodes>
      <leafValues>
        -5.1054781675338745e-01 5.4033346474170685e-02</leafValues></_>
    <_>
      <internalNodes>
        0 -1 102389 -2.9660225845873356e-04</internalNodes>
      <leafValues>
        1.3043987751007080e-01 -1.5229324996471405e-01</leafValues></_>
    <_>
      <internalNodes>
        0 -1 161238 -4.7586942091584206e-03</internalNodes>
      <leafValues>
        2.2677208483219147e-01 -7.6416932046413422e-02</leafValues></_>
    <_>
      <internalNodes>
        0 -1 113229 1.8880649004131556e-03</internalNodes>
      <leafValues>
        6.7238181829452515e-02 -2.6730066537857056e-01</leafValues></_>
    <_>
      <internalNodes>
        0 -1 112581 3.2354751601815224e-03</internalNodes>
      <leafValues>
        -1.3136266171932220e-01 1.3281965255737305e-01</leafValues></_>
    <_>
      <internalNodes>
        0 -1 101760 -1.8151756376028061e-02</internalNodes>
      <leafValues>
        -5.1753538846969604e-01 3.7480413913726807e-02</leafValues></_>
    <_>
      <internalNodes>
        0 -1 155232 -2.5832245592027903e-04</internalNodes>
      <leafValues>
        -2.4496155977249146e-01 7.1814402937889099e-02</leafValues></_>
    <_>
      <internalNodes>
        0 -1 80601 2.0988662727177143e-03</internalNodes>
      <leafValues>
        -4.0825638920068741e-02 4.7154396772384644e-01</leafValues></_>
    <_>
      <internalNodes>
        0 -1 10253 1.3513581827282906e-02</internalNodes>
      <leafValues>
        -4.8704564571380615e-02 3.5438737273216248e-01</leafValues></_>
    <_>
      <internalNodes>
        0 -1 101706 -2.3768763057887554e-03</internalNodes>
      <leafValues>
        1.2199233472347260e-01 -1.7985439300537109e-01</leafValues></_>
    <_>
      <internalNodes>
        0 -1 3587 -3.0651089549064636e-01</internalNodes>
      <leafValues>
        6.3819116353988647e-01 -2.9800863936543465e-02</leafValues></_>
    <_>
      <internalNodes>
        0 -1 564 1.1468869633972645e-02</internalNodes>
      <leafValues>
        -2.7533421292901039e-02 6.1268550157546997e-01</leafValues></_>
    <_>
      <internalNodes>
        0 -1 152010 -2.0051009953022003e-02</internalNodes>
      <leafValues>
        3.3530759811401367e-01 -5.1212869584560394e-02</leafValues></_>
    <_>
      <internalNodes>
        0 -1 60975 -9.8339291289448738e-03</internalNodes>
      <leafValues>
        4.7938600182533264e-01 -3.5118326544761658e-02</leafValues></_>
    <_>
      <internalNodes>
        0 -1 114732 1.0625381954014301e-02</internalNodes>
      <leafValues>
        4.1018452495336533e-02 -4.4635996222496033e-01</leafValues></_>
    <_>
      <internalNodes>
        0 -1 115015 3.9493571966886520e-03</internalNodes>
      <leafValues>
        -6.6172063350677490e-02 3.3353713154792786e-01</leafValues></_>
    <_>
      <internalNodes>
        0 -1 123976 -1.1881388723850250e-02</internalNodes>
      <leafValues>
        1.4669123291969299e-01 -1.2897980213165283e-01</leafValues></_>
    <_>
      <internalNodes>
        0 -1 121609 2.3754466325044632e-02</internalNodes>
      <leafValues>
        -6.5389409661293030e-02 2.9053539037704468e-01</leafValues></_>
    <_>
      <internalNodes>
        0 -1 240 -2.6924540288746357e-03</internalNodes>
      <leafValues>
        -2.5392696261405945e-01 6.5407529473304749e-02</leafValues></_>
    <_>
      <internalNodes>
        0 -1 5043 5.2860695868730545e-03</internalNodes>
      <leafValues>
        -7.9473339021205902e-02 2.2356924414634705e-01</leafValues></_>
    <_>
      <internalNodes>
        0 -1 74796 -2.2307543456554413e-01</internalNodes>
      <leafValues>
        7.2445297241210938e-01 -2.4371502920985222e-02</leafValues></_>
    <_>
      <internalNodes>
        0 -1 20939 7.3100591544061899e-04</internalNodes>
      <leafValues>
        -4.3010443449020386e-02 3.7074312567710876e-01</leafValues></_>
    <_>
      <internalNodes>
        0 -1 17217 -1.2295233085751534e-02</internalNodes>
      <leafValues>
        -5.5792659521102905e-01 3.4332975745201111e-02</leafValues></_>
    <_>
      <internalNodes>
        0 -1 30478 -6.1076462268829346e-02</internalNodes>
      <leafValues>
        7.0993953943252563e-01 -2.9678111895918846e-02</leafValues></_>
    <_>
      <internalNodes>
        0 -1 131525 -2.3316489532589912e-03</internalNodes>
      <leafValues>
        -4.3706881999969482e-01 4.3345279991626740e-02</leafValues></_>
    <_>
      <internalNodes>
        0 -1 70670 -9.5721017569303513e-03</internalNodes>
      <leafValues>
        4.9857595562934875e-01 -3.5104684531688690e-02</leafValues></_>
    <_>
      <internalNodes>
        0 -1 44340 2.5535211898386478e-04</internalNodes>
      <leafValues>
        7.8526780009269714e-02 -1.9725248217582703e-01</leafValues></_>
    <_>
      <internalNodes>
        0 -1 65553 1.7230689991265535e-03</internalNodes>
      <leafValues>
        -4.2272474616765976e-02 4.8486903309822083e-01</leafValues></_>
    <_>
      <internalNodes>
        0 -1 57170 -1.8917702138423920e-02</internalNodes>
      <leafValues>
        -2.0656056702136993e-01 8.2092814147472382e-02</leafValues></_>
    <_>
      <internalNodes>
        0 -1 150667 -1.0155914351344109e-03</internalNodes>
      <leafValues>
        1.6959875822067261e-01 -1.0823906958103180e-01</leafValues></_>
    <_>
      <internalNodes>
        0 -1 151488 2.1861138520762324e-04</internalNodes>
      <leafValues>
        1.0775388032197952e-01 -1.5363124012947083e-01</leafValues></_>
    <_>
      <internalNodes>
        0 -1 26 6.7073400132358074e-03</internalNodes>
      <leafValues>
        5.8310288935899734e-02 -2.8370636701583862e-01</leafValues></_>
    <_>
      <internalNodes>
        0 -1 157404 -1.8021524883806705e-03</internalNodes>
      <leafValues>
        3.4172293543815613e-01 -4.9897450953722000e-02</leafValues></_>
    <_>
      <internalNodes>
        0 -1 57204 -3.0900202546035871e-05</internalNodes>
      <leafValues>
        1.4408613741397858e-01 -1.0751252621412277e-01</leafValues></_>
    <_>
      <internalNodes>
        0 -1 117865 1.0197493247687817e-03</internalNodes>
      <leafValues>
        -3.8053669035434723e-02 4.0823930501937866e-01</leafValues></_>
    <_>
      <internalNodes>
        0 -1 102709 3.4844339097617194e-05</internalNodes>
      <leafValues>
        -1.0367743670940399e-01 1.6086259484291077e-01</leafValues></_>
    <_>
      <internalNodes>
        0 -1 10235 1.2795117497444153e-01</internalNodes>
      <leafValues>
        2.8657117858529091e-02 -5.7450240850448608e-01</leafValues></_>
    <_>
      <internalNodes>
        0 -1 4323 7.0416770875453949e-02</internalNodes>
      <leafValues>
        -5.3521472960710526e-02 3.3000633120536804e-01</leafValues></_>
    <_>
      <internalNodes>
        0 -1 47839 1.2665524263866246e-04</internalNodes>
      <leafValues>
        9.8356895148754120e-02 -1.8807180225849152e-01</leafValues></_>
    <_>
      <internalNodes>
        0 -1 68052 1.4476066455245018e-02</internalNodes>
      <leafValues>
        4.1155278682708740e-02 -3.7466129660606384e-01</leafValues></_>
    <_>
      <internalNodes>
        0 -1 138754 -5.6856419891119003e-02</internalNodes>
      <leafValues>
        5.9340852499008179e-01 -2.7742298319935799e-02</leafValues></_>
    <_>
      <internalNodes>
        0 -1 36126 6.7267462611198425e-02</internalNodes>
      <leafValues>
        -5.8733154088258743e-02 2.6969519257545471e-01</leafValues></_>
    <_>
      <internalNodes>
        0 -1 88660 -3.5488372668623924e-03</internalNodes>
      <leafValues>
        1.8690994381904602e-01 -8.7871186435222626e-02</leafValues></_>
    <_>
      <internalNodes>
        0 -1 68546 1.7089643515646458e-03</internalNodes>
      <leafValues>
        -4.1014034301042557e-02 3.9965105056762695e-01</leafValues></_>
    <_>
      <internalNodes>
        0 -1 55518 -9.7984254360198975e-02</internalNodes>
      <leafValues>
        4.4451320171356201e-01 -3.3988639712333679e-02</leafValues></_>
    <_>
      <internalNodes>
        0 -1 61987 -1.1811824515461922e-02</internalNodes>
      <leafValues>
        1.7256729304790497e-01 -1.1443986743688583e-01</leafValues></_>
    <_>
      <internalNodes>
        0 -1 61605 3.9567772299051285e-02</internalNodes>
      <leafValues>
        -4.9802925437688828e-02 3.3982971310615540e-01</leafValues></_>
    <_>
      <internalNodes>
        0 -1 76730 1.1205732822418213e-02</internalNodes>
      <leafValues>
        4.8687629401683807e-02 -3.4134900569915771e-01</leafValues></_>
    <_>
      <internalNodes>
        0 -1 141330 -1.7368660774081945e-03</internalNodes>
      <leafValues>
        5.1624387502670288e-01 -3.1388618052005768e-02</leafValues></_>
    <_>
      <internalNodes>
        0 -1 31077 9.1697275638580322e-03</internalNodes>
      <leafValues>
        4.3374445289373398e-02 -3.6955127120018005e-01</leafValues></_>
    <_>
      <internalNodes>
        0 -1 74406 -7.2196037508547306e-03</internalNodes>
      <leafValues>
        -2.5888779759407043e-01 6.5183073282241821e-02</leafValues></_>
    <_>
      <internalNodes>
        0 -1 87969 2.3517347872257233e-03</internalNodes>
      <leafValues>
        9.4764336943626404e-02 -1.7270526289939880e-01</leafValues></_>
    <_>
      <internalNodes>
        0 -1 74520 -7.1404548361897469e-04</internalNodes>
      <leafValues>
        2.2385376691818237e-01 -7.6888032257556915e-02</leafValues></_>
    <_>
      <internalNodes>
        0 -1 13024 -4.4258059933781624e-03</internalNodes>
      <leafValues>
        -2.7513226866722107e-01 6.0687176883220673e-02</leafValues></_>
    <_>
      <internalNodes>
        0 -1 112580 -4.5892884954810143e-03</internalNodes>
      <leafValues>
        1.7996345460414886e-01 -8.8633462786674500e-02</leafValues></_>
    <_>
      <internalNodes>
        0 -1 55459 1.0137592256069183e-01</internalNodes>
      <leafValues>
        4.0985926985740662e-02 -4.3655002117156982e-01</leafValues></_>
    <_>
      <internalNodes>
        0 -1 105643 3.1019535381346941e-03</internalNodes>
      <leafValues>
        -2.7831710875034332e-02 6.3515412807464600e-01</leafValues></_>
    <_>
      <internalNodes>
        0 -1 80465 5.7836037129163742e-02</internalNodes>
      <leafValues>
        3.2019495964050293e-02 -5.5008625984191895e-01</leafValues></_>
    <_>
      <internalNodes>
        0 -1 151825 8.7313409894704819e-03</internalNodes>
      <leafValues>
        -4.2328666895627975e-02 4.8775795102119446e-01</leafValues></_>
    <_>
      <internalNodes>
        0 -1 57741 -3.3126678317785263e-03</internalNodes>
      <leafValues>
        1.7930932343006134e-01 -9.0893670916557312e-02</leafValues></_>
    <_>
      <internalNodes>
        0 -1 24114 2.3331124335527420e-02</internalNodes>
      <leafValues>
        4.6169433742761612e-02 -3.7053766846656799e-01</leafValues></_>
    <_>
      <internalNodes>
        0 -1 138786 5.7735871523618698e-03</internalNodes>
      <leafValues>
        -4.2184617370367050e-02 3.9376905560493469e-01</leafValues></_>
    <_>
      <internalNodes>
        0 -1 112196 2.5047091767191887e-03</internalNodes>
      <leafValues>
        4.8888426274061203e-02 -3.1201604008674622e-01</leafValues></_>
    <_>
      <internalNodes>
        0 -1 136792 -1.2377955717965961e-03</internalNodes>
      <leafValues>
        5.1808708906173706e-01 -2.9681652784347534e-02</leafValues></_>
    <_>
      <internalNodes>
        0 -1 81160 1.5975058078765869e-02</internalNodes>
      <leafValues>
        3.3446036279201508e-02 -4.9460518360137939e-01</leafValues></_>
    <_>
      <internalNodes>
        0 -1 132948 -1.6566556878387928e-03</internalNodes>
      <leafValues>
        5.9093368053436279e-01 -2.8251053765416145e-02</leafValues></_>
    <_>
      <internalNodes>
        0 -1 104438 -4.5998059213161469e-03</internalNodes>
      <leafValues>
        -4.7410652041435242e-01 3.5603765398263931e-02</leafValues></_>
    <_>
      <internalNodes>
        0 -1 88418 -2.8391205705702305e-03</internalNodes>
      <leafValues>
        -3.6083039641380310e-01 3.8502302020788193e-02</leafValues></_>
    <_>
      <internalNodes>
        0 -1 95779 -1.6246002167463303e-02</internalNodes>
      <leafValues>
        2.2138030827045441e-01 -7.0654891431331635e-02</leafValues></_>
    <_>
      <internalNodes>
        0 -1 111495 3.2953356858342886e-03</internalNodes>
      <leafValues>
        -6.7944526672363281e-02 2.7455922961235046e-01</leafValues></_>
    <_>
      <internalNodes>
        0 -1 150119 8.2068110350519419e-04</internalNodes>
      <leafValues>
        1.0047681629657745e-01 -1.5930664539337158e-01</leafValues></_>
    <_>
      <internalNodes>
        0 -1 41080 -3.5645440220832825e-01</internalNodes>
      <leafValues>
        4.2563736438751221e-01 -3.9873789995908737e-02</leafValues></_>
    <_>
      <internalNodes>
        0 -1 159537 -2.0115012302994728e-03</internalNodes>
      <leafValues>
        2.8227084875106812e-01 -6.3069820404052734e-02</leafValues></_>
    <_>
      <internalNodes>
        0 -1 157498 1.5430213534273207e-04</internalNodes>
      <leafValues>
        9.0866833925247192e-02 -1.7753237485885620e-01</leafValues></_>
    <_>
      <internalNodes>
        0 -1 122195 -6.6677138209342957e-02</internalNodes>
      <leafValues>
        2.3016719520092010e-01 -7.2297714650630951e-02</leafValues></_>
    <_>
      <internalNodes>
        0 -1 156493 3.3916845917701721e-02</internalNodes>
      <leafValues>
        2.9892351478338242e-02 -5.5880820751190186e-01</leafValues></_>
    <_>
      <internalNodes>
        0 -1 23852 -6.6269878298044205e-03</internalNodes>
      <leafValues>
        4.1108152270317078e-01 -4.1445445269346237e-02</leafValues></_>
    <_>
      <internalNodes>
        0 -1 85332 -9.9980570375919342e-03</internalNodes>
      <leafValues>
        -5.1778376102447510e-01 3.2133564352989197e-02</leafValues></_>
    <_>
      <internalNodes>
        0 -1 109638 1.1645266786217690e-03</internalNodes>
      <leafValues>
        -4.1054595261812210e-02 4.1365680098533630e-01</leafValues></_>
    <_>
      <internalNodes>
        0 -1 124678 -3.2195028325077146e-05</internalNodes>
      <leafValues>
        1.4932434260845184e-01 -1.0976944863796234e-01</leafValues></_>
    <_>
      <internalNodes>
        0 -1 23212 -2.1852687932550907e-03</internalNodes>
      <leafValues>
        2.3056152462959290e-01 -6.9097965955734253e-02</leafValues></_>
    <_>
      <internalNodes>
        0 -1 31226 -3.8753654807806015e-03</internalNodes>
      <leafValues>
        1.4954847097396851e-01 -1.1287082731723785e-01</leafValues></_>
    <_>
      <internalNodes>
        0 -1 28260 -4.0272902697324753e-03</internalNodes>
      <leafValues>
        1.5879260003566742e-01 -1.0621397942304611e-01</leafValues></_>
    <_>
      <internalNodes>
        0 -1 18340 1.4035677909851074e-01</internalNodes>
      <leafValues>
        2.1915590390563011e-02 -8.1538766622543335e-01</leafValues></_>
    <_>
      <internalNodes>
        0 -1 130755 8.3077879389747977e-04</internalNodes>
      <leafValues>
        9.4043761491775513e-02 -1.7744968831539154e-01</leafValues></_>
    <_>
      <internalNodes>
        0 -1 157776 2.2742811415810138e-04</internalNodes>
      <leafValues>
        6.7628569900989532e-02 -2.4497535824775696e-01</leafValues></_>
    <_>
      <internalNodes>
        0 -1 30815 1.4074843376874924e-02</internalNodes>
      <leafValues>
        -2.5904284790158272e-02 6.5054839849472046e-01</leafValues></_></weakClassifiers></stage18>
</opencv_storage>
