<?xml version="1.0"?>
<opencv_storage>
<stage2>
  <maxWeakCount>42</maxWeakCount>
  <stageThreshold>-7.6541024446487427e-01</stageThreshold>
  <weakClassifiers>
    <_>
      <internalNodes>
        0 -1 42194 -3.8596013188362122e-01</internalNodes>
      <leafValues>
        -4.8091602325439453e-01 6.7450439929962158e-01</leafValues></_>
    <_>
      <internalNodes>
        0 -1 77532 -5.5166449397802353e-02</internalNodes>
      <leafValues>
        6.4595162868499756e-01 -1.1734291166067123e-01</leafValues></_>
    <_>
      <internalNodes>
        0 -1 9016 -1.6983956098556519e-02</internalNodes>
      <leafValues>
        3.6405730247497559e-01 -1.8325001001358032e-01</leafValues></_>
    <_>
      <internalNodes>
        0 -1 142268 -1.5768580138683319e-02</internalNodes>
      <leafValues>
        4.7240120172500610e-01 -1.2611731886863708e-01</leafValues></_>
    <_>
      <internalNodes>
        0 -1 9522 -3.0131225939840078e-03</internalNodes>
      <leafValues>
        3.7153309583663940e-01 -1.4324633777141571e-01</leafValues></_>
    <_>
      <internalNodes>
        0 -1 142270 -1.4211900532245636e-02</internalNodes>
      <leafValues>
        4.4014593958854675e-01 -1.4498107135295868e-01</leafValues></_>
    <_>
      <internalNodes>
        0 -1 102397 -3.1614147126674652e-02</internalNodes>
      <leafValues>
        5.1564466953277588e-01 -9.7284823656082153e-02</leafValues></_>
    <_>
      <internalNodes>
        0 -1 127944 2.6544504798948765e-03</internalNodes>
      <leafValues>
        -9.3811482191085815e-02 5.7825380563735962e-01</leafValues></_>
    <_>
      <internalNodes>
        0 -1 75383 -2.6981991529464722e-01</internalNodes>
      <leafValues>
        9.1673165559768677e-01 -4.1225686669349670e-02</leafValues></_>
    <_>
      <internalNodes>
        0 -1 120643 -4.8563573509454727e-03</internalNodes>
      <leafValues>
        3.5200694203376770e-01 -1.2093678116798401e-01</leafValues></_>
    <_>
      <internalNodes>
        0 -1 161399 2.6354892179369926e-04</internalNodes>
      <leafValues>
        1.2974266707897186e-01 -3.3446207642555237e-01</leafValues></_>
    <_>
      <internalNodes>
        0 -1 126261 2.0884871482849121e-03</internalNodes>
      <leafValues>
        9.1433204710483551e-02 -4.5901083946228027e-01</leafValues></_>
    <_>
      <internalNodes>
        0 -1 119431 1.6263343393802643e-02</internalNodes>
      <leafValues>
        -1.0033334791660309e-01 4.1773730516433716e-01</leafValues></_>
    <_>
      <internalNodes>
        0 -1 87001 3.6363609135150909e-02</internalNodes>
      <leafValues>
        -9.7619712352752686e-02 4.4963052868843079e-01</leafValues></_>
    <_>
      <internalNodes>
        0 -1 13391 2.7094973251223564e-02</internalNodes>
      <leafValues>
        8.5946366190910339e-02 -5.8515810966491699e-01</leafValues></_>
    <_>
      <internalNodes>
        0 -1 119427 -3.5247555933892727e-03</internalNodes>
      <leafValues>
        -6.1309826374053955e-01 6.9140106439590454e-02</leafValues></_>
    <_>
      <internalNodes>
        0 -1 102736 2.3259778972715139e-03</internalNodes>
      <leafValues>
        7.6277337968349457e-02 -4.2958465218544006e-01</leafValues></_>
    <_>
      <internalNodes>
        0 -1 97496 1.6133949160575867e-02</internalNodes>
      <leafValues>
        -8.9943483471870422e-02 4.5428439974784851e-01</leafValues></_>
    <_>
      <internalNodes>
        0 -1 10632 4.6572922728955746e-03</internalNodes>
      <leafValues>
        -9.4202138483524323e-02 3.7716758251190186e-01</leafValues></_>
    <_>
      <internalNodes>
        0 -1 13748 -5.9668362140655518e-02</internalNodes>
      <leafValues>
        3.0860844254493713e-01 -1.4108353853225708e-01</leafValues></_>
    <_>
      <internalNodes>
        0 -1 91548 -5.8653064072132111e-02</internalNodes>
      <leafValues>
        5.3741216659545898e-01 -8.2648776471614838e-02</leafValues></_>
    <_>
      <internalNodes>
        0 -1 126625 -4.1452527511864901e-04</internalNodes>
      <leafValues>
        -4.4165763258934021e-01 1.0282405465841293e-01</leafValues></_>
    <_>
      <internalNodes>
        0 -1 74064 5.6859694421291351e-02</internalNodes>
      <leafValues>
        -5.6083068251609802e-02 7.9662740230560303e-01</leafValues></_>
    <_>
      <internalNodes>
        0 -1 117458 -1.3172326143831015e-03</internalNodes>
      <leafValues>
        1.8094377219676971e-01 -2.3574654757976532e-01</leafValues></_>
    <_>
      <internalNodes>
        0 -1 95635 3.1170544389169663e-05</internalNodes>
      <leafValues>
        -1.6678719222545624e-01 2.4593861401081085e-01</leafValues></_>
    <_>
      <internalNodes>
        0 -1 95635 -3.2495718187419698e-05</internalNodes>
      <leafValues>
        2.3247794806957245e-01 -1.8622852861881256e-01</leafValues></_>
    <_>
      <internalNodes>
        0 -1 56288 -1.4744292944669724e-02</internalNodes>
      <leafValues>
        4.8418775200843811e-01 -7.8271947801113129e-02</leafValues></_>
    <_>
      <internalNodes>
        0 -1 161240 -4.4711126247420907e-04</internalNodes>
      <leafValues>
        -2.7637752890586853e-01 1.3342472910881042e-01</leafValues></_>
    <_>
      <internalNodes>
        0 -1 126348 5.2626256365329027e-04</internalNodes>
      <leafValues>
        7.6331429183483124e-02 -4.4796204566955566e-01</leafValues></_>
    <_>
      <internalNodes>
        0 -1 60189 7.9066231846809387e-03</internalNodes>
      <leafValues>
        -1.2007368355989456e-01 3.2200607657432556e-01</leafValues></_>
    <_>
      <internalNodes>
        0 -1 10632 -5.1491986960172653e-03</internalNodes>
      <leafValues>
        3.9350095391273499e-01 -8.4494195878505707e-02</leafValues></_>
    <_>
      <internalNodes>
        0 -1 9474 -1.1598181445151567e-03</internalNodes>
      <leafValues>
        -2.5115177035331726e-01 1.3754014670848846e-01</leafValues></_>
    <_>
      <internalNodes>
        0 -1 158335 1.0715295560657978e-02</internalNodes>
      <leafValues>
        -8.5283830761909485e-02 4.2312687635421753e-01</leafValues></_>
    <_>
      <internalNodes>
        0 -1 64520 6.7588677629828453e-03</internalNodes>
      <leafValues>
        -9.1844759881496429e-02 3.5817354917526245e-01</leafValues></_>
    <_>
      <internalNodes>
        0 -1 95550 9.2823896557092667e-03</internalNodes>
      <leafValues>
        8.8551558554172516e-02 -4.2797303199768066e-01</leafValues></_>
    <_>
      <internalNodes>
        0 -1 13472 3.6323053063824773e-04</internalNodes>
      <leafValues>
        1.3734537363052368e-01 -2.5442633032798767e-01</leafValues></_>
    <_>
      <internalNodes>
        0 -1 157794 -1.1623376049101353e-02</internalNodes>
      <leafValues>
        5.2148908376693726e-01 -6.5658427774906158e-02</leafValues></_>
    <_>
      <internalNodes>
        0 -1 119096 -3.2395869493484497e-02</internalNodes>
      <leafValues>
        5.3900992870330811e-01 -6.2587596476078033e-02</leafValues></_>
    <_>
      <internalNodes>
        0 -1 138082 3.3299671486020088e-05</internalNodes>
      <leafValues>
        -1.4117944240570068e-01 2.5375816226005554e-01</leafValues></_>
    <_>
      <internalNodes>
        0 -1 138271 -3.1826886697672307e-05</internalNodes>
      <leafValues>
        2.1499702334403992e-01 -1.7147579789161682e-01</leafValues></_>
    <_>
      <internalNodes>
        0 -1 96707 3.2156687229871750e-03</internalNodes>
      <leafValues>
        7.9596832394599915e-02 -5.0648319721221924e-01</leafValues></_>
    <_>
      <internalNodes>
        0 -1 105302 2.8543095104396343e-03</internalNodes>
      <leafValues>
        7.8582003712654114e-02 -4.0815991163253784e-01</leafValues></_></weakClassifiers></stage2>
</opencv_storage>
