<?xml version="1.0"?>
<opencv_storage>
<stage0>
  <maxWeakCount>15</maxWeakCount>
  <stageThreshold>-6.5725255012512207e-01</stageThreshold>
  <weakClassifiers>
    <_>
      <internalNodes>
        0 -1 112613 2.4686795659363270e-03</internalNodes>
      <leafValues>
        7.0053976774215698e-01 -5.4572272300720215e-01</leafValues></_>
    <_>
      <internalNodes>
        0 -1 133874 -3.1724348664283752e-02</internalNodes>
      <leafValues>
        6.1926966905593872e-01 -1.9060279428958893e-01</leafValues></_>
    <_>
      <internalNodes>
        0 -1 104635 2.7546277269721031e-03</internalNodes>
      <leafValues>
        2.0620292425155640e-01 -7.3807591199874878e-01</leafValues></_>
    <_>
      <internalNodes>
        0 -1 104307 3.8625090382993221e-03</internalNodes>
      <leafValues>
        1.2296611070632935e-01 -7.3237693309783936e-01</leafValues></_>
    <_>
      <internalNodes>
        0 -1 117475 4.2114667594432831e-03</internalNodes>
      <leafValues>
        1.0653378814458847e-01 -7.4398964643478394e-01</leafValues></_>
    <_>
      <internalNodes>
        0 -1 125086 3.9174538105726242e-03</internalNodes>
      <leafValues>
        1.1754124611616135e-01 -7.0058560371398926e-01</leafValues></_>
    <_>
      <internalNodes>
        0 -1 109679 5.8991843834519386e-03</internalNodes>
      <leafValues>
        1.0766229778528214e-01 -7.3531258106231689e-01</leafValues></_>
    <_>
      <internalNodes>
        0 -1 26820 -2.2218357771635056e-03</internalNodes>
      <leafValues>
        -5.5272477865219116e-01 1.2520326673984528e-01</leafValues></_>
    <_>
      <internalNodes>
        0 -1 78896 1.9096287433058023e-03</internalNodes>
      <leafValues>
        1.6416634619235992e-01 -4.1496324539184570e-01</leafValues></_>
    <_>
      <internalNodes>
        0 -1 66346 -1.8604336306452751e-02</internalNodes>
      <leafValues>
        3.9940771460533142e-01 -1.6697680950164795e-01</leafValues></_>
    <_>
      <internalNodes>
        0 -1 102946 -1.3868861831724644e-02</internalNodes>
      <leafValues>
        3.4284347295761108e-01 -2.8638571500778198e-01</leafValues></_>
    <_>
      <internalNodes>
        0 -1 140854 1.4756666496396065e-02</internalNodes>
      <leafValues>
        -1.7103032767772675e-01 4.6123740077018738e-01</leafValues></_>
    <_>
      <internalNodes>
        0 -1 126066 1.1054917704313993e-03</internalNodes>
      <leafValues>
        1.0064736753702164e-01 -7.3039859533309937e-01</leafValues></_>
    <_>
      <internalNodes>
        0 -1 52419 8.5101127624511719e-02</internalNodes>
      <leafValues>
        -1.0146249830722809e-01 7.2672683000564575e-01</leafValues></_>
    <_>
      <internalNodes>
        0 -1 159737 8.2573154941201210e-04</internalNodes>
      <leafValues>
        1.7579686641693115e-01 -4.2692151665687561e-01</leafValues></_></weakClassifiers></stage0>
</opencv_storage>
