<?xml version="1.0"?>
<opencv_storage>
<stage9>
  <maxWeakCount>18</maxWeakCount>
  <stageThreshold>-1.0956602096557617e+00</stageThreshold>
  <weakClassifiers>
    <_>
      <internalNodes>
        0 -1 63203 -4.6799285337328911e-03</internalNodes>
      <leafValues>
        4.2879998683929443e-01 -2.7764704823493958e-01</leafValues></_>
    <_>
      <internalNodes>
        0 -1 61883 2.6893019676208496e-03</internalNodes>
      <leafValues>
        -4.2529731988906860e-01 2.8137561678886414e-01</leafValues></_>
    <_>
      <internalNodes>
        0 -1 32404 -3.3874783664941788e-02</internalNodes>
      <leafValues>
        1.6603630781173706e-01 -5.6745886802673340e-01</leafValues></_>
    <_>
      <internalNodes>
        0 -1 39561 -1.3397962320595980e-03</internalNodes>
      <leafValues>
        2.5849890708923340e-01 -3.6198344826698303e-01</leafValues></_>
    <_>
      <internalNodes>
        0 -1 53616 9.1239716857671738e-04</internalNodes>
      <leafValues>
        9.8829902708530426e-02 -7.5303548574447632e-01</leafValues></_>
    <_>
      <internalNodes>
        0 -1 44973 -5.2754003554582596e-03</internalNodes>
      <leafValues>
        5.7491511106491089e-01 -1.6458308696746826e-01</leafValues></_>
    <_>
      <internalNodes>
        0 -1 4088 7.1503389626741409e-03</internalNodes>
      <leafValues>
        -1.4952345192432404e-01 6.3059407472610474e-01</leafValues></_>
    <_>
      <internalNodes>
        0 -1 6355 -1.6005991026759148e-02</internalNodes>
      <leafValues>
        -4.3911123275756836e-01 1.9711288809776306e-01</leafValues></_>
    <_>
      <internalNodes>
        0 -1 36061 -7.6122903265058994e-03</internalNodes>
      <leafValues>
        3.9980387687683105e-01 -2.1748904883861542e-01</leafValues></_>
    <_>
      <internalNodes>
        0 -1 42518 9.4790227012708783e-04</internalNodes>
      <leafValues>
        8.3923906087875366e-02 -9.2230778932571411e-01</leafValues></_>
    <_>
      <internalNodes>
        0 -1 52484 -2.8346185572445393e-03</internalNodes>
      <leafValues>
        -8.5740798711776733e-01 7.2019308805465698e-02</leafValues></_>
    <_>
      <internalNodes>
        0 -1 44205 -3.7039420567452908e-03</internalNodes>
      <leafValues>
        1.7154830694198608e-01 -4.3074578046798706e-01</leafValues></_>
    <_>
      <internalNodes>
        0 -1 39107 -6.0109235346317291e-04</internalNodes>
      <leafValues>
        -4.8437279462814331e-01 1.5003427863121033e-01</leafValues></_>
    <_>
      <internalNodes>
        0 -1 27149 -2.8009351342916489e-02</internalNodes>
      <leafValues>
        1.9509418308734894e-01 -3.7715229392051697e-01</leafValues></_>
    <_>
      <internalNodes>
        0 -1 61759 7.1326345205307007e-03</internalNodes>
      <leafValues>
        -2.8414309024810791e-01 2.6472452282905579e-01</leafValues></_>
    <_>
      <internalNodes>
        0 -1 26569 -3.9190035313367844e-03</internalNodes>
      <leafValues>
        4.6285003423690796e-01 -1.8267789483070374e-01</leafValues></_>
    <_>
      <internalNodes>
        0 -1 63929 -4.9526897782925516e-05</internalNodes>
      <leafValues>
        3.8205435872077942e-01 -2.0851017534732819e-01</leafValues></_>
    <_>
      <internalNodes>
        0 -1 23729 6.5254941582679749e-02</internalNodes>
      <leafValues>
        9.0628504753112793e-02 -7.1448427438735962e-01</leafValues></_></weakClassifiers></stage9>
</opencv_storage>
