<?xml version="1.0"?>
<opencv_storage>
<stage31>
  <maxWeakCount>34</maxWeakCount>
  <stageThreshold>-7.0839309692382812e-01</stageThreshold>
  <weakClassifiers>
    <_>
      <internalNodes>
        0 -1 35191 1.7972465604543686e-02</internalNodes>
      <leafValues>
        4.8186215758323669e-01 -4.8958334326744080e-01</leafValues></_>
    <_>
      <internalNodes>
        0 -1 156317 1.5280658844858408e-03</internalNodes>
      <leafValues>
        -4.1545459628105164e-01 2.1409244835376740e-01</leafValues></_>
    <_>
      <internalNodes>
        0 -1 35418 -2.3958263918757439e-03</internalNodes>
      <leafValues>
        5.2201020717620850e-01 -1.5682001411914825e-01</leafValues></_>
    <_>
      <internalNodes>
        0 -1 154538 1.3448169920593500e-03</internalNodes>
      <leafValues>
        -1.5117916464805603e-01 4.2191258072853088e-01</leafValues></_>
    <_>
      <internalNodes>
        0 -1 76686 6.0686256736516953e-02</internalNodes>
      <leafValues>
        7.3749974370002747e-02 -7.4715244770050049e-01</leafValues></_>
    <_>
      <internalNodes>
        0 -1 138850 7.7095385640859604e-03</internalNodes>
      <leafValues>
        -1.0159645229578018e-01 6.6318875551223755e-01</leafValues></_>
    <_>
      <internalNodes>
        0 -1 104523 -1.2927564966958016e-05</internalNodes>
      <leafValues>
        2.1815665066242218e-01 -2.5137236714363098e-01</leafValues></_>
    <_>
      <internalNodes>
        0 -1 35844 -1.0913851438090205e-03</internalNodes>
      <leafValues>
        3.8876238465309143e-01 -1.5391863882541656e-01</leafValues></_>
    <_>
      <internalNodes>
        0 -1 43997 -1.7279457300901413e-02</internalNodes>
      <leafValues>
        -4.3168640136718750e-01 1.3916161656379700e-01</leafValues></_>
    <_>
      <internalNodes>
        0 -1 49300 -6.5607391297817230e-04</internalNodes>
      <leafValues>
        -3.8896670937538147e-01 1.5067778527736664e-01</leafValues></_>
    <_>
      <internalNodes>
        0 -1 87208 -7.2460918454453349e-04</internalNodes>
      <leafValues>
        1.9147481024265289e-01 -3.1722244620323181e-01</leafValues></_>
    <_>
      <internalNodes>
        0 -1 94014 -1.5952511457726359e-03</internalNodes>
      <leafValues>
        3.2619172334671021e-01 -1.9694004952907562e-01</leafValues></_>
    <_>
      <internalNodes>
        0 -1 2533 -1.1877503991127014e-01</internalNodes>
      <leafValues>
        -6.5408664941787720e-01 1.0824653506278992e-01</leafValues></_>
    <_>
      <internalNodes>
        0 -1 147138 2.5346158072352409e-03</internalNodes>
      <leafValues>
        -6.5704476833343506e-01 8.0447994172573090e-02</leafValues></_>
    <_>
      <internalNodes>
        0 -1 141952 -1.3547657057642937e-02</internalNodes>
      <leafValues>
        -5.8832710981369019e-01 9.4419576227664948e-02</leafValues></_>
    <_>
      <internalNodes>
        0 -1 159284 -1.1093085631728172e-03</internalNodes>
      <leafValues>
        4.5532637834548950e-01 -1.3563580811023712e-01</leafValues></_>
    <_>
      <internalNodes>
        0 -1 158494 9.3488965649157763e-04</internalNodes>
      <leafValues>
        2.4275998771190643e-01 -2.3185524344444275e-01</leafValues></_>
    <_>
      <internalNodes>
        0 -1 156536 -3.7557925097644329e-03</internalNodes>
      <leafValues>
        2.1214140951633453e-01 -2.6211446523666382e-01</leafValues></_>
    <_>
      <internalNodes>
        0 -1 482 -2.0689763128757477e-02</internalNodes>
      <leafValues>
        -7.5350123643875122e-01 7.4401073157787323e-02</leafValues></_>
    <_>
      <internalNodes>
        0 -1 154225 -1.0444955900311470e-02</internalNodes>
      <leafValues>
        4.7963532805442810e-01 -1.2515480816364288e-01</leafValues></_>
    <_>
      <internalNodes>
        0 -1 76757 5.2062897011637688e-03</internalNodes>
      <leafValues>
        -1.1663316935300827e-01 4.2792665958404541e-01</leafValues></_>
    <_>
      <internalNodes>
        0 -1 112397 -1.4123617438599467e-03</internalNodes>
      <leafValues>
        2.1899189054965973e-01 -2.6327887177467346e-01</leafValues></_>
    <_>
      <internalNodes>
        0 -1 113336 -7.1166211273521185e-04</internalNodes>
      <leafValues>
        -4.7929406166076660e-01 1.3029846549034119e-01</leafValues></_>
    <_>
      <internalNodes>
        0 -1 149962 -1.0318697430193424e-02</internalNodes>
      <leafValues>
        3.9442533254623413e-01 -1.4118060469627380e-01</leafValues></_>
    <_>
      <internalNodes>
        0 -1 113096 3.2853144221007824e-03</internalNodes>
      <leafValues>
        8.2214146852493286e-02 -7.2420412302017212e-01</leafValues></_>
    <_>
      <internalNodes>
        0 -1 105294 -1.0176073014736176e-01</internalNodes>
      <leafValues>
        7.6555269956588745e-01 -8.6648516356945038e-02</leafValues></_>
    <_>
      <internalNodes>
        0 -1 90807 7.2451373562216759e-03</internalNodes>
      <leafValues>
        -1.1807753890752792e-01 3.7342962622642517e-01</leafValues></_>
    <_>
      <internalNodes>
        0 -1 125871 -8.5090640932321548e-03</internalNodes>
      <leafValues>
        -3.5438847541809082e-01 1.6985000669956207e-01</leafValues></_>
    <_>
      <internalNodes>
        0 -1 123677 3.4001916646957397e-02</internalNodes>
      <leafValues>
        1.1372148245573044e-01 -4.5201236009597778e-01</leafValues></_>
    <_>
      <internalNodes>
        0 -1 13387 -1.5417428687214851e-02</internalNodes>
      <leafValues>
        -5.4477119445800781e-01 8.9890293776988983e-02</leafValues></_>
    <_>
      <internalNodes>
        0 -1 2215 -4.5118553680367768e-04</internalNodes>
      <leafValues>
        -2.9006817936897278e-01 1.7695450782775879e-01</leafValues></_>
    <_>
      <internalNodes>
        0 -1 39388 -6.2306958716362715e-04</internalNodes>
      <leafValues>
        2.4954639375209808e-01 -2.5106576085090637e-01</leafValues></_>
    <_>
      <internalNodes>
        0 -1 81884 4.7061694785952568e-03</internalNodes>
      <leafValues>
        -7.9905860126018524e-02 6.5765309333801270e-01</leafValues></_>
    <_>
      <internalNodes>
        0 -1 136144 -2.7556575369089842e-03</internalNodes>
      <leafValues>
        7.6123923063278198e-01 -6.0881085693836212e-02</leafValues></_></weakClassifiers></stage31>
</opencv_storage>
